[
  {
    "nodeid": 0,
    "depth": 0,
    "split": 0,
    "split_condition": 0.618735,
    "yes": 1,
    "no": 14,
    "missing": 1,
    "children": [
      {
        "nodeid": 1,
        "depth": 1,
        "split": 1,
        "split_condition": 5.333550000000001,
        "yes": 2,
        "no": 9,
        "missing": 2,
        "children": [
          {
            "nodeid": 2,
            "depth": 2,
            "split": 0,
            "split_condition": 0.22177999999999998,
            "yes": 3,
            "no": 6,
            "missing": 3,
            "children": [
              {
                "nodeid": 3,
                "depth": 3,
                "split": 2,
                "split_condition": 6.66465,
                "yes": 4,
                "no": 5,
                "missing": 4,
                "children": [
                  {
                    "nodeid": 4,
                    "leaf": 0.99644128113879
                  },
                  {
                    "nodeid": 5,
                    "leaf": 0.8211382113821138
                  }
                ]
              },
              {
                "nodeid": 6,
                "depth": 3,
                "split": 2,
                "split_condition": 0.36258300000000004,
                "yes": 7,
                "no": 8,
                "missing": 7,
                "children": [
                  {
                    "nodeid": 7,
                    "leaf": 1.0
                  },
                  {
                    "nodeid": 8,
                    "leaf": 0.19230769230769232
                  }
                ]
              }
            ]
          },
          {
            "nodeid": 9,
            "depth": 2,
            "split": 0,
            "split_condition": -3.36765,
            "yes": 10,
            "no": 13,
            "missing": 10,
            "children": [
              {
                "nodeid": 10,
                "depth": 3,
                "split": 3,
                "split_condition": -2.068545,
                "yes": 11,
                "no": 12,
                "missing": 11,
                "children": [
                  {
                    "nodeid": 11,
                    "leaf": 1.0
                  },
                  {
                    "nodeid": 12,
                    "leaf": 0.0
                  }
                ]
              },
              {
                "nodeid": 13,
                "leaf": 0.0
              }
            ]
          }
        ]
      },
      {
        "nodeid": 14,
        "depth": 1,
        "split": 2,
        "split_condition": -4.52825,
        "yes": 15,
        "no": 18,
        "missing": 15,
        "children": [
          {
            "nodeid": 15,
            "depth": 2,
            "split": 0,
            "split_condition": 3.30405,
            "yes": 16,
            "no": 17,
            "missing": 16,
            "children": [
              {
                "nodeid": 16,
                "leaf": 1.0
              },
              {
                "nodeid": 17,
                "leaf": 0.0
              }
            ]
          },
          {
            "nodeid": 18,
            "depth": 2,
            "split": 0,
            "split_condition": 0.8178350000000001,
            "yes": 19,
            "no": 22,
            "missing": 19,
            "children": [
              {
                "nodeid": 19,
                "depth": 3,
                "split": 1,
                "split_condition": 4.7324,
                "yes": 20,
                "no": 21,
                "missing": 20,
                "children": [
                  {
                    "nodeid": 20,
                    "leaf": 0.5882352941176471
                  },
                  {
                    "nodeid": 21,
                    "leaf": 0.0
                  }
                ]
              },
              {
                "nodeid": 22,
                "depth": 3,
                "split": 0,
                "split_condition": 0.95573,
                "yes": 23,
                "no": 24,
                "missing": 23,
                "children": [
                  {
                    "nodeid": 23,
                    "leaf": 0.2916666666666667
                  },
                  {
                    "nodeid": 24,
                    "leaf": 0.03131991051454139
                  }
                ]
              }
            ]
          }
        ]
      }
    ]
  }
]