[
  {
    "nodeid": 0,
    "depth": 0,
    "split": 4,
    "split_condition": 0.12611,
    "yes": 1,
    "no": 14,
    "missing": 1,
    "children": [
      {
        "nodeid": 1,
        "depth": 1,
        "split": 13,
        "split_condition": 0.11363000000000001,
        "yes": 2,
        "no": 7,
        "missing": 2,
        "children": [
          {
            "nodeid": 2,
            "depth": 2,
            "split": 33,
            "split_condition": -0.22212500000000002,
            "yes": 3,
            "no": 6,
            "missing": 3,
            "children": [
              {
                "nodeid": 3,
                "depth": 3,
                "split": 24,
                "split_condition": 0.0551,
                "yes": 4,
                "no": 5,
                "missing": 4,
                "children": [
                  {
                    "nodeid": 4,
                    "leaf": 1.0
                  },
                  {
                    "nodeid": 5,
                    "leaf": 0.0
                  }
                ]
              },
              {
                "nodeid": 6,
                "leaf": 1.0
              }
            ]
          },
          {
            "nodeid": 7,
            "depth": 2,
            "split": 9,
            "split_condition": 0.56523,
            "yes": 8,
            "no": 11,
            "missing": 8,
            "children": [
              {
                "nodeid": 8,
                "depth": 3,
                "split": 22,
                "split_condition": 0.255915,
                "yes": 9,
                "no": 10,
                "missing": 9,
                "children": [
                  {
                    "nodeid": 9,
                    "leaf": 1.0
                  },
                  {
                    "nodeid": 10,
                    "leaf": 0.6666666666666666
                  }
                ]
              },
              {
                "nodeid": 11,
                "depth": 3,
                "split": 5,
                "split_condition": 0.10639,
                "yes": 12,
                "no": 13,
                "missing": 12,
                "children": [
                  {
                    "nodeid": 12,
                    "leaf": 1.0
                  },
                  {
                    "nodeid": 13,
                    "leaf": 0.0
                  }
                ]
              }
            ]
          }
        ]
      },
      {
        "nodeid": 14,
        "depth": 1,
        "split": 0,
        "split_condition": 0.5,
        "yes": 15,
        "no": 16,
        "missing": 15,
        "children": [
          {
            "nodeid": 15,
            "leaf": 1.0
          },
          {
            "nodeid": 16,
            "depth": 2,
            "split": 2,
            "split_condition": 0.18884499999999999,
            "yes": 17,
            "no": 20,
            "missing": 17,
            "children": [
              {
                "nodeid": 17,
                "depth": 3,
                "split": 2,
                "split_condition": 0.107145,
                "yes": 18,
                "no": 19,
                "missing": 18,
                "children": [
                  {
                    "nodeid": 18,
                    "leaf": 1.0
                  },
                  {
                    "nodeid": 19,
                    "leaf": 0.5
                  }
                ]
              },
              {
                "nodeid": 20,
                "depth": 3,
                "split": 7,
                "split_condition": -0.8466899999999999,
                "yes": 21,
                "no": 22,
                "missing": 21,
                "children": [
                  {
                    "nodeid": 21,
                    "leaf": 0.7
                  },
                  {
                    "nodeid": 22,
                    "leaf": 0.08602150537634409
                  }
                ]
              }
            ]
          }
        ]
      }
    ]
  }
]