[
  {
    "nodeid": 0,
    "depth": 0,
    "split": 18,
    "split_condition": -6.5371575,
    "yes": 1,
    "no": 8,
    "missing": 1,
    "children": [
      {
        "nodeid": 1,
        "depth": 1,
        "split": 1,
        "split_condition": 231.001,
        "yes": 2,
        "no": 7,
        "missing": 2,
        "children": [
          {
            "nodeid": 2,
            "depth": 2,
            "split": 0,
            "split_condition": 133.131,
            "yes": 3,
            "no": 4,
            "missing": 3,
            "children": [
              {
                "nodeid": 3,
                "leaf": 0.0
              },
              {
                "nodeid": 4,
                "depth": 3,
                "split": 20,
                "split_condition": 1.850914,
                "yes": 5,
                "no": 6,
                "missing": 5,
                "children": [
                  {
                    "nodeid": 5,
                    "leaf": 0.0
                  },
                  {
                    "nodeid": 6,
                    "leaf": 1.0
                  }
                ]
              }
            ]
          },
          {
            "nodeid": 7,
            "leaf": 0.0
          }
        ]
      },
      {
        "nodeid": 8,
        "depth": 1,
        "split": 18,
        "split_condition": -5.621563,
        "yes": 9,
        "no": 14,
        "missing": 9,
        "children": [
          {
            "nodeid": 9,
            "depth": 2,
            "split": 2,
            "split_condition": 125.40299999999999,
            "yes": 10,
            "no": 13,
            "missing": 10,
            "children": [
              {
                "nodeid": 10,
                "depth": 3,
                "split": 18,
                "split_condition": -6.2907265,
                "yes": 11,
                "no": 12,
                "missing": 11,
                "children": [
                  {
                    "nodeid": 11,
                    "leaf": 0.2
                  },
                  {
                    "nodeid": 12,
                    "leaf": 0.7241379310344828
                  }
                ]
              },
              {
                "nodeid": 13,
                "leaf": 1.0
              }
            ]
          },
          {
            "nodeid": 14,
            "depth": 2,
            "split": 18,
            "split_condition": -5.5189284999999995,
            "yes": 15,
            "no": 18,
            "missing": 15,
            "children": [
              {
                "nodeid": 15,
                "depth": 3,
                "split": 0,
                "split_condition": 118.14099999999999,
                "yes": 16,
                "no": 17,
                "missing": 16,
                "children": [
                  {
                    "nodeid": 16,
                    "leaf": 0.5
                  },
                  {
                    "nodeid": 17,
                    "leaf": 1.0
                  }
                ]
              },
              {
                "nodeid": 18,
                "leaf": 1.0
              }
            ]
          }
        ]
      }
    ]
  }
]