[
  {
    "nodeid": 0,
    "depth": 0,
    "split": 44,
    "split_condition": 0.2864,
    "yes": 1,
    "no": 16,
    "missing": 1,
    "children": [
      {
        "nodeid": 1,
        "depth": 1,
        "split": 11,
        "split_condition": 0.27395,
        "yes": 2,
        "no": 9,
        "missing": 2,
        "children": [
          {
            "nodeid": 2,
            "depth": 2,
            "split": 10,
            "split_condition": 0.1724,
            "yes": 3,
            "no": 6,
            "missing": 3,
            "children": [
              {
                "nodeid": 3,
                "depth": 3,
                "split": 33,
                "split_condition": 0.5385,
                "yes": 4,
                "no": 5,
                "missing": 4,
                "children": [
                  {
                    "nodeid": 4,
                    "leaf": 0.5428571428571428
                  },
                  {
                    "nodeid": 5,
                    "leaf": 0.2857142857142857
                  }
                ]
              },
              {
                "nodeid": 6,
                "depth": 3,
                "split": 34,
                "split_condition": 0.3345,
                "yes": 7,
                "no": 8,
                "missing": 7,
                "children": [
                  {
                    "nodeid": 7,
                    "leaf": 0.5454545454545454
                  },
                  {
                    "nodeid": 8,
                    "leaf": 0.4666666666666667
                  }
                ]
              }
            ]
          },
          {
            "nodeid": 9,
            "depth": 2,
            "split": 19,
            "split_condition": 0.5864499999999999,
            "yes": 10,
            "no": 13,
            "missing": 10,
            "children": [
              {
                "nodeid": 10,
                "depth": 3,
                "split": 9,
                "split_condition": 0.2734,
                "yes": 11,
                "no": 12,
                "missing": 11,
                "children": [
                  {
                    "nodeid": 11,
                    "leaf": 0.18181818181818182
                  },
                  {
                    "nodeid": 12,
                    "leaf": 0.4
                  }
                ]
              },
              {
                "nodeid": 13,
                "depth": 3,
                "split": 13,
                "split_condition": 0.4324,
                "yes": 14,
                "no": 15,
                "missing": 14,
                "children": [
                  {
                    "nodeid": 14,
                    "leaf": 0.631578947368421
                  },
                  {
                    "nodeid": 15,
                    "leaf": 0.6363636363636364
                  }
                ]
              }
            ]
          }
        ]
      },
      {
        "nodeid": 16,
        "depth": 1,
        "split": 17,
        "split_condition": 0.5061,
        "yes": 17,
        "no": 24,
        "missing": 17,
        "children": [
          {
            "nodeid": 17,
            "depth": 2,
            "split": 10,
            "split_condition": 0.27545,
            "yes": 18,
            "no": 21,
            "missing": 18,
            "children": [
              {
                "nodeid": 18,
                "depth": 3,
                "split": 27,
                "split_condition": 0.5649500000000001,
                "yes": 19,
                "no": 20,
                "missing": 19,
                "children": [
                  {
                    "nodeid": 19,
                    "leaf": 0.0
                  },
                  {
                    "nodeid": 20,
                    "leaf": 0.7894736842105263
                  }
                ]
              },
              {
                "nodeid": 21,
                "depth": 3,
                "split": 34,
                "split_condition": 0.25554999999999994,
                "yes": 22,
                "no": 23,
                "missing": 22,
                "children": [
                  {
                    "nodeid": 22,
                    "leaf": 1.0
                  },
                  {
                    "nodeid": 23,
                    "leaf": 0.5
                  }
                ]
              }
            ]
          },
          {
            "nodeid": 24,
            "depth": 2,
            "split": 45,
            "split_condition": 0.3922,
            "yes": 25,
            "no": 26,
            "missing": 25,
            "children": [
              {
                "nodeid": 25,
                "leaf": 0.0
              },
              {
                "nodeid": 26,
                "leaf": 1.0
              }
            ]
          }
        ]
      }
    ]
  }
]