[
  {
    "nodeid": 0,
    "depth": 0,
    "split": 35,
    "split_condition": 0.2901,
    "yes": 1,
    "no": 14,
    "missing": 1,
    "children": [
      {
        "nodeid": 1,
        "depth": 1,
        "split": 27,
        "split_condition": 0.8571,
        "yes": 2,
        "no": 9,
        "missing": 2,
        "children": [
          {
            "nodeid": 2,
            "depth": 2,
            "split": 10,
            "split_condition": 0.22465,
            "yes": 3,
            "no": 6,
            "missing": 3,
            "children": [
              {
                "nodeid": 3,
                "depth": 3,
                "split": 29,
                "split_condition": 0.45655,
                "yes": 4,
                "no": 5,
                "missing": 4,
                "children": [
                  {
                    "nodeid": 4,
                    "leaf": 0.4
                  },
                  {
                    "nodeid": 5,
                    "leaf": 0.6875
                  }
                ]
              },
              {
                "nodeid": 6,
                "depth": 3,
                "split": 44,
                "split_condition": 0.34204999999999997,
                "yes": 7,
                "no": 8,
                "missing": 7,
                "children": [
                  {
                    "nodeid": 7,
                    "leaf": 0.5
                  },
                  {
                    "nodeid": 8,
                    "leaf": 1.0
                  }
                ]
              }
            ]
          },
          {
            "nodeid": 9,
            "depth": 2,
            "split": 26,
            "split_condition": 0.76275,
            "yes": 10,
            "no": 11,
            "missing": 10,
            "children": [
              {
                "nodeid": 10,
                "leaf": 0.0
              },
              {
                "nodeid": 11,
                "depth": 3,
                "split": 10,
                "split_condition": 0.1971,
                "yes": 12,
                "no": 13,
                "missing": 12,
                "children": [
                  {
                    "nodeid": 12,
                    "leaf": 0.625
                  },
                  {
                    "nodeid": 13,
                    "leaf": 0.6470588235294118
                  }
                ]
              }
            ]
          }
        ]
      },
      {
        "nodeid": 14,
        "depth": 1,
        "split": 19,
        "split_condition": 0.58275,
        "yes": 15,
        "no": 22,
        "missing": 15,
        "children": [
          {
            "nodeid": 15,
            "depth": 2,
            "split": 44,
            "split_condition": 0.2946,
            "yes": 16,
            "no": 19,
            "missing": 16,
            "children": [
              {
                "nodeid": 16,
                "depth": 3,
                "split": 31,
                "split_condition": 0.4092,
                "yes": 17,
                "no": 18,
                "missing": 17,
                "children": [
                  {
                    "nodeid": 17,
                    "leaf": 0.5714285714285714
                  },
                  {
                    "nodeid": 18,
                    "leaf": 0.2
                  }
                ]
              },
              {
                "nodeid": 19,
                "depth": 3,
                "split": 27,
                "split_condition": 0.72405,
                "yes": 20,
                "no": 21,
                "missing": 20,
                "children": [
                  {
                    "nodeid": 20,
                    "leaf": 0.36363636363636365
                  },
                  {
                    "nodeid": 21,
                    "leaf": 0.6428571428571429
                  }
                ]
              }
            ]
          },
          {
            "nodeid": 22,
            "depth": 2,
            "split": 20,
            "split_condition": 0.66725,
            "yes": 23,
            "no": 26,
            "missing": 23,
            "children": [
              {
                "nodeid": 23,
                "depth": 3,
                "split": 35,
                "split_condition": 0.4373,
                "yes": 24,
                "no": 25,
                "missing": 24,
                "children": [
                  {
                    "nodeid": 24,
                    "leaf": 0.6666666666666666
                  },
                  {
                    "nodeid": 25,
                    "leaf": 0.2
                  }
                ]
              },
              {
                "nodeid": 26,
                "depth": 3,
                "split": 14,
                "split_condition": 0.24949999999999997,
                "yes": 27,
                "no": 28,
                "missing": 27,
                "children": [
                  {
                    "nodeid": 27,
                    "leaf": 0.5384615384615384
                  },
                  {
                    "nodeid": 28,
                    "leaf": 0.7727272727272727
                  }
                ]
              }
            ]
          }
        ]
      }
    ]
  }
]