[
  {
    "nodeid": 0,
    "depth": 0,
    "split": 44,
    "split_condition": 0.27164999999999995,
    "yes": 1,
    "no": 16,
    "missing": 1,
    "children": [
      {
        "nodeid": 1,
        "depth": 1,
        "split": 35,
        "split_condition": 0.31765,
        "yes": 2,
        "no": 9,
        "missing": 2,
        "children": [
          {
            "nodeid": 2,
            "depth": 2,
            "split": 27,
            "split_condition": 0.88845,
            "yes": 3,
            "no": 6,
            "missing": 3,
            "children": [
              {
                "nodeid": 3,
                "depth": 3,
                "split": 20,
                "split_condition": 0.4602,
                "yes": 4,
                "no": 5,
                "missing": 4,
                "children": [
                  {
                    "nodeid": 4,
                    "leaf": 0.25
                  },
                  {
                    "nodeid": 5,
                    "leaf": 0.6363636363636364
                  }
                ]
              },
              {
                "nodeid": 6,
                "depth": 3,
                "split": 26,
                "split_condition": 0.87025,
                "yes": 7,
                "no": 8,
                "missing": 7,
                "children": [
                  {
                    "nodeid": 7,
                    "leaf": 0.5
                  },
                  {
                    "nodeid": 8,
                    "leaf": 0.5625
                  }
                ]
              }
            ]
          },
          {
            "nodeid": 9,
            "depth": 2,
            "split": 19,
            "split_condition": 0.64315,
            "yes": 10,
            "no": 13,
            "missing": 10,
            "children": [
              {
                "nodeid": 10,
                "depth": 3,
                "split": 19,
                "split_condition": 0.6188499999999999,
                "yes": 11,
                "no": 12,
                "missing": 11,
                "children": [
                  {
                    "nodeid": 11,
                    "leaf": 0.25
                  },
                  {
                    "nodeid": 12,
                    "leaf": 0.5
                  }
                ]
              },
              {
                "nodeid": 13,
                "depth": 3,
                "split": 20,
                "split_condition": 0.6476,
                "yes": 14,
                "no": 15,
                "missing": 14,
                "children": [
                  {
                    "nodeid": 14,
                    "leaf": 0.3333333333333333
                  },
                  {
                    "nodeid": 15,
                    "leaf": 0.75
                  }
                ]
              }
            ]
          }
        ]
      },
      {
        "nodeid": 16,
        "depth": 1,
        "split": 43,
        "split_condition": 0.33099999999999996,
        "yes": 17,
        "no": 24,
        "missing": 17,
        "children": [
          {
            "nodeid": 17,
            "depth": 2,
            "split": 17,
            "split_condition": 0.5061,
            "yes": 18,
            "no": 21,
            "missing": 18,
            "children": [
              {
                "nodeid": 18,
                "depth": 3,
                "split": 22,
                "split_condition": 0.5462,
                "yes": 19,
                "no": 20,
                "missing": 19,
                "children": [
                  {
                    "nodeid": 19,
                    "leaf": 0.8571428571428571
                  },
                  {
                    "nodeid": 20,
                    "leaf": 0.4
                  }
                ]
              },
              {
                "nodeid": 21,
                "depth": 3,
                "split": 44,
                "split_condition": 0.38725,
                "yes": 22,
                "no": 23,
                "missing": 22,
                "children": [
                  {
                    "nodeid": 22,
                    "leaf": 0.0
                  },
                  {
                    "nodeid": 23,
                    "leaf": 1.0
                  }
                ]
              }
            ]
          },
          {
            "nodeid": 24,
            "depth": 2,
            "split": 9,
            "split_condition": 0.19155,
            "yes": 25,
            "no": 28,
            "missing": 25,
            "children": [
              {
                "nodeid": 25,
                "depth": 3,
                "split": 36,
                "split_condition": 0.28525,
                "yes": 26,
                "no": 27,
                "missing": 26,
                "children": [
                  {
                    "nodeid": 26,
                    "leaf": 1.0
                  },
                  {
                    "nodeid": 27,
                    "leaf": 0.2
                  }
                ]
              },
              {
                "nodeid": 28,
                "depth": 3,
                "split": 34,
                "split_condition": 0.34265,
                "yes": 29,
                "no": 30,
                "missing": 29,
                "children": [
                  {
                    "nodeid": 29,
                    "leaf": 1.0
                  },
                  {
                    "nodeid": 30,
                    "leaf": 0.5
                  }
                ]
              }
            ]
          }
        ]
      }
    ]
  }
]