[
  {
    "nodeid": 0,
    "depth": 0,
    "split": 23,
    "split_condition": 884.55,
    "yes": 1,
    "no": 16,
    "missing": 1,
    "children": [
      {
        "nodeid": 1,
        "depth": 1,
        "split": 22,
        "split_condition": 102.05000000000001,
        "yes": 2,
        "no": 9,
        "missing": 2,
        "children": [
          {
            "nodeid": 2,
            "depth": 2,
            "split": 25,
            "split_condition": 0.5554,
            "yes": 3,
            "no": 6,
            "missing": 3,
            "children": [
              {
                "nodeid": 3,
                "depth": 3,
                "split": 23,
                "split_condition": 768.0999999999999,
                "yes": 4,
                "no": 5,
                "missing": 4,
                "children": [
                  {
                    "nodeid": 4,
                    "leaf": 0.01606425702811245
                  },
                  {
                    "nodeid": 5,
                    "leaf": 0.5
                  }
                ]
              },
              {
                "nodeid": 6,
                "depth": 3,
                "split": 1,
                "split_condition": 18.509999999999998,
                "yes": 7,
                "no": 8,
                "missing": 7,
                "children": [
                  {
                    "nodeid": 7,
                    "leaf": 0.0
                  },
                  {
                    "nodeid": 8,
                    "leaf": 1.0
                  }
                ]
              }
            ]
          },
          {
            "nodeid": 9,
            "depth": 2,
            "split": 3,
            "split_condition": 631.45,
            "yes": 10,
            "no": 13,
            "missing": 10,
            "children": [
              {
                "nodeid": 10,
                "depth": 3,
                "split": 1,
                "split_condition": 15.16,
                "yes": 11,
                "no": 12,
                "missing": 11,
                "children": [
                  {
                    "nodeid": 11,
                    "leaf": 0.0
                  },
                  {
                    "nodeid": 12,
                    "leaf": 0.8571428571428571
                  }
                ]
              },
              {
                "nodeid": 13,
                "depth": 3,
                "split": 21,
                "split_condition": 27.42,
                "yes": 14,
                "no": 15,
                "missing": 14,
                "children": [
                  {
                    "nodeid": 14,
                    "leaf": 0.0
                  },
                  {
                    "nodeid": 15,
                    "leaf": 0.4
                  }
                ]
              }
            ]
          }
        ]
      },
      {
        "nodeid": 16,
        "depth": 1,
        "split": 1,
        "split_condition": 15.82,
        "yes": 17,
        "no": 20,
        "missing": 17,
        "children": [
          {
            "nodeid": 17,
            "depth": 2,
            "split": 13,
            "split_condition": 30.605000000000004,
            "yes": 18,
            "no": 19,
            "missing": 18,
            "children": [
              {
                "nodeid": 18,
                "leaf": 0.0
              },
              {
                "nodeid": 19,
                "leaf": 1.0
              }
            ]
          },
          {
            "nodeid": 20,
            "depth": 2,
            "split": 22,
            "split_condition": 120.4,
            "yes": 21,
            "no": 24,
            "missing": 21,
            "children": [
              {
                "nodeid": 21,
                "depth": 3,
                "split": 0,
                "split_condition": 16.380000000000003,
                "yes": 22,
                "no": 23,
                "missing": 22,
                "children": [
                  {
                    "nodeid": 22,
                    "leaf": 1.0
                  },
                  {
                    "nodeid": 23,
                    "leaf": 0.3333333333333333
                  }
                ]
              },
              {
                "nodeid": 24,
                "leaf": 1.0
              }
            ]
          }
        ]
      }
    ]
  }
]