[
  {
    "nodeid": 0,
    "depth": 0,
    "split": 51,
    "split_condition": 0.1325,
    "yes": 1,
    "no": 14,
    "missing": 1,
    "children": [
      {
        "nodeid": 1,
        "depth": 1,
        "split": 6,
        "split_condition": 0.14,
        "yes": 2,
        "no": 9,
        "missing": 2,
        "children": [
          {
            "nodeid": 2,
            "depth": 2,
            "split": 22,
            "split_condition": 0.105,
            "yes": 3,
            "no": 6,
            "missing": 3,
            "children": [
              {
                "nodeid": 3,
                "depth": 3,
                "split": 23,
                "split_condition": 0.11,
                "yes": 4,
                "no": 5,
                "missing": 4,
                "children": [
                  {
                    "nodeid": 4,
                    "leaf": 0.12913727618014106
                  },
                  {
                    "nodeid": 5,
                    "leaf": 0.75
                  }
                ]
              },
              {
                "nodeid": 6,
                "depth": 3,
                "split": 24,
                "split_condition": 0.825,
                "yes": 7,
                "no": 8,
                "missing": 7,
                "children": [
                  {
                    "nodeid": 7,
                    "leaf": 0.8918918918918919
                  },
                  {
                    "nodeid": 8,
                    "leaf": 0.0
                  }
                ]
              }
            ]
          },
          {
            "nodeid": 9,
            "depth": 2,
            "split": 26,
            "split_condition": 0.14,
            "yes": 10,
            "no": 13,
            "missing": 10,
            "children": [
              {
                "nodeid": 10,
                "depth": 3,
                "split": 24,
                "split_condition": 0.735,
                "yes": 11,
                "no": 12,
                "missing": 11,
                "children": [
                  {
                    "nodeid": 11,
                    "leaf": 0.9781420765027322
                  },
                  {
                    "nodeid": 12,
                    "leaf": 0.25
                  }
                ]
              },
              {
                "nodeid": 13,
                "leaf": 0.0
              }
            ]
          }
        ]
      },
      {
        "nodeid": 14,
        "depth": 1,
        "split": 54,
        "split_condition": 2.893,
        "yes": 15,
        "no": 22,
        "missing": 15,
        "children": [
          {
            "nodeid": 15,
            "depth": 2,
            "split": 51,
            "split_condition": 0.3115,
            "yes": 16,
            "no": 19,
            "missing": 16,
            "children": [
              {
                "nodeid": 16,
                "depth": 3,
                "split": 6,
                "split_condition": 0.14500000000000002,
                "yes": 17,
                "no": 18,
                "missing": 17,
                "children": [
                  {
                    "nodeid": 17,
                    "leaf": 0.1836734693877551
                  },
                  {
                    "nodeid": 18,
                    "leaf": 0.7941176470588235
                  }
                ]
              },
              {
                "nodeid": 19,
                "depth": 3,
                "split": 56,
                "split_condition": 68.5,
                "yes": 20,
                "no": 21,
                "missing": 20,
                "children": [
                  {
                    "nodeid": 20,
                    "leaf": 0.2768595041322314
                  },
                  {
                    "nodeid": 21,
                    "leaf": 0.7482993197278912
                  }
                ]
              }
            ]
          },
          {
            "nodeid": 22,
            "depth": 2,
            "split": 24,
            "split_condition": 0.45,
            "yes": 23,
            "no": 26,
            "missing": 23,
            "children": [
              {
                "nodeid": 23,
                "depth": 3,
                "split": 45,
                "split_condition": 0.265,
                "yes": 24,
                "no": 25,
                "missing": 24,
                "children": [
                  {
                    "nodeid": 24,
                    "leaf": 0.9228395061728395
                  },
                  {
                    "nodeid": 25,
                    "leaf": 0.0
                  }
                ]
              },
              {
                "nodeid": 26,
                "depth": 3,
                "split": 51,
                "split_condition": 0.6345000000000001,
                "yes": 27,
                "no": 28,
                "missing": 27,
                "children": [
                  {
                    "nodeid": 27,
                    "leaf": 0.037037037037037035
                  },
                  {
                    "nodeid": 28,
                    "leaf": 0.8333333333333334
                  }
                ]
              }
            ]
          }
        ]
      }
    ]
  }
]