[
  {
    "nodeid": 0,
    "depth": 0,
    "split": 11,
    "split_condition": -0.970135,
    "yes": 1,
    "no": 2,
    "missing": 1,
    "children": [
      {
        "nodeid": 1,
        "leaf": 1.0
      },
      {
        "nodeid": 2,
        "depth": 1,
        "split": 0,
        "split_condition": 0.0017324999999999999,
        "yes": 3,
        "no": 10,
        "missing": 3,
        "children": [
          {
            "nodeid": 3,
            "depth": 2,
            "split": 5,
            "split_condition": 0.42211000000000004,
            "yes": 4,
            "no": 7,
            "missing": 4,
            "children": [
              {
                "nodeid": 4,
                "depth": 3,
                "split": 9,
                "split_condition": 0.851605,
                "yes": 5,
                "no": 6,
                "missing": 5,
                "children": [
                  {
                    "nodeid": 5,
                    "leaf": 0.25806451612903225
                  },
                  {
                    "nodeid": 6,
                    "leaf": 1.0
                  }
                ]
              },
              {
                "nodeid": 7,
                "depth": 3,
                "split": 8,
                "split_condition": 0.51227,
                "yes": 8,
                "no": 9,
                "missing": 8,
                "children": [
                  {
                    "nodeid": 8,
                    "leaf": 0.6666666666666666
                  },
                  {
                    "nodeid": 9,
                    "leaf": 0.0
                  }
                ]
              }
            ]
          },
          {
            "nodeid": 10,
            "depth": 2,
            "split": 3,
            "split_condition": -0.109655,
            "yes": 11,
            "no": 14,
            "missing": 11,
            "children": [
              {
                "nodeid": 11,
                "depth": 3,
                "split": 7,
                "split_condition": -0.779585,
                "yes": 12,
                "no": 13,
                "missing": 12,
                "children": [
                  {
                    "nodeid": 12,
                    "leaf": 1.0
                  },
                  {
                    "nodeid": 13,
                    "leaf": 0.26666666666666666
                  }
                ]
              },
              {
                "nodeid": 14,
                "depth": 3,
                "split": 5,
                "split_condition": -0.5078,
                "yes": 15,
                "no": 16,
                "missing": 15,
                "children": [
                  {
                    "nodeid": 15,
                    "leaf": 1.0
                  },
                  {
                    "nodeid": 16,
                    "leaf": 0.16666666666666666
                  }
                ]
              }
            ]
          }
        ]
      }
    ]
  }
]