[
  {
    "nodeid": 0,
    "depth": 0,
    "split": 11,
    "split_condition": -0.948345,
    "yes": 1,
    "no": 2,
    "missing": 1,
    "children": [
      {
        "nodeid": 1,
        "leaf": 1.0
      },
      {
        "nodeid": 2,
        "depth": 1,
        "split": 0,
        "split_condition": -0.8326500000000001,
        "yes": 3,
        "no": 4,
        "missing": 3,
        "children": [
          {
            "nodeid": 3,
            "leaf": 0.0
          },
          {
            "nodeid": 4,
            "depth": 2,
            "split": 11,
            "split_condition": -0.17231449999999998,
            "yes": 5,
            "no": 8,
            "missing": 5,
            "children": [
              {
                "nodeid": 5,
                "depth": 3,
                "split": 5,
                "split_condition": -0.13102999999999998,
                "yes": 6,
                "no": 7,
                "missing": 6,
                "children": [
                  {
                    "nodeid": 6,
                    "leaf": 0.3125
                  },
                  {
                    "nodeid": 7,
                    "leaf": 0.28
                  }
                ]
              },
              {
                "nodeid": 8,
                "depth": 3,
                "split": 3,
                "split_condition": -0.5102899999999999,
                "yes": 9,
                "no": 10,
                "missing": 9,
                "children": [
                  {
                    "nodeid": 9,
                    "leaf": 0.2
                  },
                  {
                    "nodeid": 10,
                    "leaf": 0.29545454545454547
                  }
                ]
              }
            ]
          }
        ]
      }
    ]
  }
]