[
  {
    "nodeid": 0,
    "depth": 0,
    "split": 10,
    "split_condition": 10.3,
    "yes": 1,
    "no": 10,
    "missing": 1,
    "children": [
      {
        "nodeid": 1,
        "depth": 1,
        "split": 10,
        "split_condition": 10.2,
        "yes": 2,
        "no": 9,
        "missing": 2,
        "children": [
          {
            "nodeid": 2,
            "depth": 2,
            "split": 10,
            "split_condition": 9.975,
            "yes": 3,
            "no": 6,
            "missing": 3,
            "children": [
              {
                "nodeid": 3,
                "depth": 3,
                "split": 10,
                "split_condition": 9.8,
                "yes": 4,
                "no": 5,
                "missing": 4,
                "children": [
                  {
                    "nodeid": 4,
                    "leaf": 0.5428422152560084
                  },
                  {
                    "nodeid": 5,
                    "leaf": 0.5026737967914439
                  }
                ]
              },
              {
                "nodeid": 6,
                "depth": 3,
                "split": 1,
                "split_condition": 0.355,
                "yes": 7,
                "no": 8,
                "missing": 7,
                "children": [
                  {
                    "nodeid": 7,
                    "leaf": 0.463768115942029
                  },
                  {
                    "nodeid": 8,
                    "leaf": 0.46078431372549017
                  }
                ]
              }
            ]
          },
          {
            "nodeid": 9,
            "leaf": 0.42028985507246375
          }
        ]
      },
      {
        "nodeid": 10,
        "depth": 1,
        "split": 10,
        "split_condition": 10.7,
        "yes": 11,
        "no": 18,
        "missing": 11,
        "children": [
          {
            "nodeid": 11,
            "depth": 2,
            "split": 10,
            "split_condition": 10.58333333333335,
            "yes": 12,
            "no": 15,
            "missing": 12,
            "children": [
              {
                "nodeid": 12,
                "depth": 3,
                "split": 10,
                "split_condition": 10.48333333333335,
                "yes": 13,
                "no": 14,
                "missing": 13,
                "children": [
                  {
                    "nodeid": 13,
                    "leaf": 0.3695652173913043
                  },
                  {
                    "nodeid": 14,
                    "leaf": 0.3670886075949367
                  }
                ]
              },
              {
                "nodeid": 15,
                "depth": 3,
                "split": 5,
                "split_condition": 18.5,
                "yes": 16,
                "no": 17,
                "missing": 16,
                "children": [
                  {
                    "nodeid": 16,
                    "leaf": 0.5660377358490566
                  },
                  {
                    "nodeid": 17,
                    "leaf": 0.2845528455284553
                  }
                ]
              }
            ]
          },
          {
            "nodeid": 18,
            "leaf": 0.17170263788968826
          }
        ]
      }
    ]
  }
]