[
  {
    "nodeid": 0,
    "depth": 0,
    "split": 0,
    "split_condition": 6.5,
    "yes": 1,
    "no": 16,
    "missing": 1,
    "children": [
      {
        "nodeid": 1,
        "depth": 1,
        "split": 2,
        "split_condition": 1125.0,
        "yes": 2,
        "no": 9,
        "missing": 2,
        "children": [
          {
            "nodeid": 2,
            "depth": 2,
            "split": 3,
            "split_condition": 3.0,
            "yes": 3,
            "no": 6,
            "missing": 3,
            "children": [
              {
                "nodeid": 3,
                "depth": 3,
                "split": 2,
                "split_condition": 375.0,
                "yes": 4,
                "no": 5,
                "missing": 4,
                "children": [
                  {
                    "nodeid": 4,
                    "leaf": 0.18518518518518517
                  },
                  {
                    "nodeid": 5,
                    "leaf": 0.0
                  }
                ]
              },
              {
                "nodeid": 6,
                "depth": 3,
                "split": 3,
                "split_condition": 12.5,
                "yes": 7,
                "no": 8,
                "missing": 7,
                "children": [
                  {
                    "nodeid": 7,
                    "leaf": 0.35
                  },
                  {
                    "nodeid": 8,
                    "leaf": 0.23076923076923078
                  }
                ]
              }
            ]
          },
          {
            "nodeid": 9,
            "depth": 2,
            "split": 3,
            "split_condition": 49.5,
            "yes": 10,
            "no": 13,
            "missing": 10,
            "children": [
              {
                "nodeid": 10,
                "depth": 3,
                "split": 1,
                "split_condition": 14.5,
                "yes": 11,
                "no": 12,
                "missing": 11,
                "children": [
                  {
                    "nodeid": 11,
                    "leaf": 0.5909090909090909
                  },
                  {
                    "nodeid": 12,
                    "leaf": 1.0
                  }
                ]
              },
              {
                "nodeid": 13,
                "depth": 3,
                "split": 1,
                "split_condition": 12.5,
                "yes": 14,
                "no": 15,
                "missing": 14,
                "children": [
                  {
                    "nodeid": 14,
                    "leaf": 0.11764705882352941
                  },
                  {
                    "nodeid": 15,
                    "leaf": 0.5416666666666666
                  }
                ]
              }
            ]
          }
        ]
      },
      {
        "nodeid": 16,
        "depth": 1,
        "split": 0,
        "split_condition": 13.5,
        "yes": 17,
        "no": 24,
        "missing": 17,
        "children": [
          {
            "nodeid": 17,
            "depth": 2,
            "split": 3,
            "split_condition": 37.5,
            "yes": 18,
            "no": 21,
            "missing": 18,
            "children": [
              {
                "nodeid": 18,
                "depth": 3,
                "split": 3,
                "split_condition": 16.5,
                "yes": 19,
                "no": 20,
                "missing": 19,
                "children": [
                  {
                    "nodeid": 19,
                    "leaf": 0.20689655172413793
                  },
                  {
                    "nodeid": 20,
                    "leaf": 0.0
                  }
                ]
              },
              {
                "nodeid": 21,
                "depth": 3,
                "split": 3,
                "split_condition": 55.0,
                "yes": 22,
                "no": 23,
                "missing": 22,
                "children": [
                  {
                    "nodeid": 22,
                    "leaf": 0.2962962962962963
                  },
                  {
                    "nodeid": 23,
                    "leaf": 0.15384615384615385
                  }
                ]
              }
            ]
          },
          {
            "nodeid": 24,
            "depth": 2,
            "split": 3,
            "split_condition": 20.0,
            "yes": 25,
            "no": 26,
            "missing": 25,
            "children": [
              {
                "nodeid": 25,
                "leaf": 0.0
              },
              {
                "nodeid": 26,
                "depth": 3,
                "split": 3,
                "split_condition": 22.5,
                "yes": 27,
                "no": 28,
                "missing": 27,
                "children": [
                  {
                    "nodeid": 27,
                    "leaf": 0.23809523809523808
                  },
                  {
                    "nodeid": 28,
                    "leaf": 0.04929577464788732
                  }
                ]
              }
            ]
          }
        ]
      }
    ]
  }
]