[
  {
    "nodeid": 0,
    "depth": 0,
    "split": 18,
    "split_condition": -6.2552215,
    "yes": 1,
    "no": 12,
    "missing": 1,
    "children": [
      {
        "nodeid": 1,
        "depth": 1,
        "split": 1,
        "split_condition": 229.1805,
        "yes": 2,
        "no": 7,
        "missing": 2,
        "children": [
          {
            "nodeid": 2,
            "depth": 2,
            "split": 0,
            "split_condition": 133.131,
            "yes": 3,
            "no": 4,
            "missing": 3,
            "children": [
              {
                "nodeid": 3,
                "leaf": 0.0
              },
              {
                "nodeid": 4,
                "depth": 3,
                "split": 20,
                "split_condition": 1.850914,
                "yes": 5,
                "no": 6,
                "missing": 5,
                "children": [
                  {
                    "nodeid": 5,
                    "leaf": 0.0
                  },
                  {
                    "nodeid": 6,
                    "leaf": 1.0
                  }
                ]
              }
            ]
          },
          {
            "nodeid": 7,
            "depth": 2,
            "split": 18,
            "split_condition": -6.3086234999999995,
            "yes": 8,
            "no": 9,
            "missing": 8,
            "children": [
              {
                "nodeid": 8,
                "leaf": 0.0
              },
              {
                "nodeid": 9,
                "depth": 3,
                "split": 19,
                "split_condition": 0.2482845,
                "yes": 10,
                "no": 11,
                "missing": 10,
                "children": [
                  {
                    "nodeid": 10,
                    "leaf": 0.0
                  },
                  {
                    "nodeid": 11,
                    "leaf": 1.0
                  }
                ]
              }
            ]
          }
        ]
      },
      {
        "nodeid": 12,
        "depth": 1,
        "split": 15,
        "split_condition": 25.805,
        "yes": 13,
        "no": 20,
        "missing": 13,
        "children": [
          {
            "nodeid": 13,
            "depth": 2,
            "split": 0,
            "split_condition": 207.08999999999997,
            "yes": 14,
            "no": 17,
            "missing": 14,
            "children": [
              {
                "nodeid": 14,
                "depth": 3,
                "split": 0,
                "split_condition": 195.2995,
                "yes": 15,
                "no": 16,
                "missing": 15,
                "children": [
                  {
                    "nodeid": 15,
                    "leaf": 0.9882352941176471
                  },
                  {
                    "nodeid": 16,
                    "leaf": 0.875
                  }
                ]
              },
              {
                "nodeid": 17,
                "depth": 3,
                "split": 18,
                "split_condition": -5.6206145,
                "yes": 18,
                "no": 19,
                "missing": 18,
                "children": [
                  {
                    "nodeid": 18,
                    "leaf": 0.3333333333333333
                  },
                  {
                    "nodeid": 19,
                    "leaf": 1.0
                  }
                ]
              }
            ]
          },
          {
            "nodeid": 20,
            "depth": 2,
            "split": 0,
            "split_condition": 118.233,
            "yes": 21,
            "no": 24,
            "missing": 21,
            "children": [
              {
                "nodeid": 21,
                "depth": 3,
                "split": 18,
                "split_condition": -5.667265,
                "yes": 22,
                "no": 23,
                "missing": 22,
                "children": [
                  {
                    "nodeid": 22,
                    "leaf": 0.0
                  },
                  {
                    "nodeid": 23,
                    "leaf": 1.0
                  }
                ]
              },
              {
                "nodeid": 24,
                "leaf": 1.0
              }
            ]
          }
        ]
      }
    ]
  }
]