[
  {
    "nodeid": 0,
    "depth": 0,
    "split": 4,
    "split_condition": 0.106305,
    "yes": 1,
    "no": 10,
    "missing": 1,
    "children": [
      {
        "nodeid": 1,
        "depth": 1,
        "split": 26,
        "split_condition": 0.5869800000000001,
        "yes": 2,
        "no": 9,
        "missing": 2,
        "children": [
          {
            "nodeid": 2,
            "depth": 2,
            "split": 13,
            "split_condition": 0.145875,
            "yes": 3,
            "no": 6,
            "missing": 3,
            "children": [
              {
                "nodeid": 3,
                "depth": 3,
                "split": 33,
                "split_condition": -0.22212500000000002,
                "yes": 4,
                "no": 5,
                "missing": 4,
                "children": [
                  {
                    "nodeid": 4,
                    "leaf": 0.0
                  },
                  {
                    "nodeid": 5,
                    "leaf": 1.0
                  }
                ]
              },
              {
                "nodeid": 6,
                "depth": 3,
                "split": 25,
                "split_condition": 0.23816500000000002,
                "yes": 7,
                "no": 8,
                "missing": 7,
                "children": [
                  {
                    "nodeid": 7,
                    "leaf": 0.0
                  },
                  {
                    "nodeid": 8,
                    "leaf": 1.0
                  }
                ]
              }
            ]
          },
          {
            "nodeid": 9,
            "leaf": 1.0
          }
        ]
      },
      {
        "nodeid": 10,
        "depth": 1,
        "split": 0,
        "split_condition": 0.5,
        "yes": 11,
        "no": 12,
        "missing": 11,
        "children": [
          {
            "nodeid": 11,
            "leaf": 1.0
          },
          {
            "nodeid": 12,
            "depth": 2,
            "split": 2,
            "split_condition": 0.18884499999999999,
            "yes": 13,
            "no": 16,
            "missing": 13,
            "children": [
              {
                "nodeid": 13,
                "depth": 3,
                "split": 2,
                "split_condition": 0.107145,
                "yes": 14,
                "no": 15,
                "missing": 14,
                "children": [
                  {
                    "nodeid": 14,
                    "leaf": 1.0
                  },
                  {
                    "nodeid": 15,
                    "leaf": 0.5
                  }
                ]
              },
              {
                "nodeid": 16,
                "depth": 3,
                "split": 7,
                "split_condition": -0.8268800000000001,
                "yes": 17,
                "no": 18,
                "missing": 17,
                "children": [
                  {
                    "nodeid": 17,
                    "leaf": 0.7272727272727273
                  },
                  {
                    "nodeid": 18,
                    "leaf": 0.08108108108108109
                  }
                ]
              }
            ]
          }
        ]
      }
    ]
  }
]