[
  {
    "nodeid": 0,
    "depth": 0,
    "split": 1,
    "split_condition": 0.480184428998554,
    "yes": 1,
    "no": 8,
    "missing": 1,
    "children": [
      {
        "nodeid": 1,
        "depth": 1,
        "split": 15,
        "split_condition": 0.35909945820975653,
        "yes": 2,
        "no": 7,
        "missing": 2,
        "children": [
          {
            "nodeid": 2,
            "depth": 2,
            "split": 7,
            "split_condition": 0.426966423682946,
            "yes": 3,
            "no": 6,
            "missing": 3,
            "children": [
              {
                "nodeid": 3,
                "depth": 3,
                "split": 5,
                "split_condition": 0.269419544996021,
                "yes": 4,
                "no": 5,
                "missing": 4,
                "children": [
                  {
                    "nodeid": 4,
                    "leaf": 0.7142857142857143
                  },
                  {
                    "nodeid": 5,
                    "leaf": 0.9705882352941176
                  }
                ]
              },
              {
                "nodeid": 6,
                "leaf": 1.0
              }
            ]
          },
          {
            "nodeid": 7,
            "leaf": 1.0
          }
        ]
      },
      {
        "nodeid": 8,
        "depth": 1,
        "split": 0,
        "split_condition": 0.425139596242742,
        "yes": 9,
        "no": 14,
        "missing": 9,
        "children": [
          {
            "nodeid": 9,
            "depth": 2,
            "split": 0,
            "split_condition": 0.3722584711025575,
            "yes": 10,
            "no": 11,
            "missing": 10,
            "children": [
              {
                "nodeid": 10,
                "leaf": 1.0
              },
              {
                "nodeid": 11,
                "depth": 3,
                "split": 17,
                "split_condition": 0.1278235036271833,
                "yes": 12,
                "no": 13,
                "missing": 12,
                "children": [
                  {
                    "nodeid": 12,
                    "leaf": 0.5
                  },
                  {
                    "nodeid": 13,
                    "leaf": 1.0
                  }
                ]
              }
            ]
          },
          {
            "nodeid": 14,
            "depth": 2,
            "split": 13,
            "split_condition": 0.6556809734152109,
            "yes": 15,
            "no": 18,
            "missing": 15,
            "children": [
              {
                "nodeid": 15,
                "depth": 3,
                "split": 12,
                "split_condition": 0.42712524770112303,
                "yes": 16,
                "no": 17,
                "missing": 16,
                "children": [
                  {
                    "nodeid": 16,
                    "leaf": 0.8333333333333334
                  },
                  {
                    "nodeid": 17,
                    "leaf": 0.6842105263157895
                  }
                ]
              },
              {
                "nodeid": 18,
                "depth": 3,
                "split": 2,
                "split_condition": 0.25586115371293605,
                "yes": 19,
                "no": 20,
                "missing": 19,
                "children": [
                  {
                    "nodeid": 19,
                    "leaf": 0.8947368421052632
                  },
                  {
                    "nodeid": 20,
                    "leaf": 1.0
                  }
                ]
              }
            ]
          }
        ]
      }
    ]
  }
]