[
  {
    "nodeid": 0,
    "depth": 0,
    "split": 20,
    "split_condition": 0.505,
    "yes": 1,
    "no": 14,
    "missing": 1,
    "children": [
      {
        "nodeid": 1,
        "depth": 1,
        "split": 6,
        "split_condition": 0.10500000000000001,
        "yes": 2,
        "no": 9,
        "missing": 2,
        "children": [
          {
            "nodeid": 2,
            "depth": 2,
            "split": 54,
            "split_condition": 3.635,
            "yes": 3,
            "no": 6,
            "missing": 3,
            "children": [
              {
                "nodeid": 3,
                "depth": 3,
                "split": 15,
                "split_condition": 0.275,
                "yes": 4,
                "no": 5,
                "missing": 4,
                "children": [
                  {
                    "nodeid": 4,
                    "leaf": 0.07727570399476097
                  },
                  {
                    "nodeid": 5,
                    "leaf": 0.4368932038834951
                  }
                ]
              },
              {
                "nodeid": 6,
                "depth": 3,
                "split": 51,
                "split_condition": 0.2265,
                "yes": 7,
                "no": 8,
                "missing": 7,
                "children": [
                  {
                    "nodeid": 7,
                    "leaf": 0.29767441860465116
                  },
                  {
                    "nodeid": 8,
                    "leaf": 0.8837209302325582
                  }
                ]
              }
            ]
          },
          {
            "nodeid": 9,
            "depth": 2,
            "split": 26,
            "split_condition": 0.14,
            "yes": 10,
            "no": 13,
            "missing": 10,
            "children": [
              {
                "nodeid": 10,
                "depth": 3,
                "split": 7,
                "split_condition": 1.6300000000000001,
                "yes": 11,
                "no": 12,
                "missing": 11,
                "children": [
                  {
                    "nodeid": 11,
                    "leaf": 0.9285714285714286
                  },
                  {
                    "nodeid": 12,
                    "leaf": 0.0
                  }
                ]
              },
              {
                "nodeid": 13,
                "leaf": 0.0
              }
            ]
          }
        ]
      },
      {
        "nodeid": 14,
        "depth": 1,
        "split": 24,
        "split_condition": 0.15500000000000003,
        "yes": 15,
        "no": 22,
        "missing": 15,
        "children": [
          {
            "nodeid": 15,
            "depth": 2,
            "split": 56,
            "split_condition": 71.5,
            "yes": 16,
            "no": 19,
            "missing": 16,
            "children": [
              {
                "nodeid": 16,
                "depth": 3,
                "split": 6,
                "split_condition": 0.14,
                "yes": 17,
                "no": 18,
                "missing": 17,
                "children": [
                  {
                    "nodeid": 17,
                    "leaf": 0.2698412698412698
                  },
                  {
                    "nodeid": 18,
                    "leaf": 0.9512195121951219
                  }
                ]
              },
              {
                "nodeid": 19,
                "depth": 3,
                "split": 45,
                "split_condition": 0.21500000000000002,
                "yes": 20,
                "no": 21,
                "missing": 20,
                "children": [
                  {
                    "nodeid": 20,
                    "leaf": 0.9027777777777778
                  },
                  {
                    "nodeid": 21,
                    "leaf": 0.1282051282051282
                  }
                ]
              }
            ]
          },
          {
            "nodeid": 22,
            "depth": 2,
            "split": 19,
            "split_condition": 0.7050000000000001,
            "yes": 23,
            "no": 26,
            "missing": 23,
            "children": [
              {
                "nodeid": 23,
                "depth": 3,
                "split": 6,
                "split_condition": 0.15500000000000003,
                "yes": 24,
                "no": 25,
                "missing": 24,
                "children": [
                  {
                    "nodeid": 24,
                    "leaf": 0.03111111111111111
                  },
                  {
                    "nodeid": 25,
                    "leaf": 0.5714285714285714
                  }
                ]
              },
              {
                "nodeid": 26,
                "leaf": 1.0
              }
            ]
          }
        ]
      }
    ]
  }
]