[
  {
    "nodeid": 0,
    "depth": 0,
    "split": 15,
    "split_condition": 0.105,
    "yes": 1,
    "no": 16,
    "missing": 1,
    "children": [
      {
        "nodeid": 1,
        "depth": 1,
        "split": 55,
        "split_condition": 18.5,
        "yes": 2,
        "no": 9,
        "missing": 2,
        "children": [
          {
            "nodeid": 2,
            "depth": 2,
            "split": 22,
            "split_condition": 0.115,
            "yes": 3,
            "no": 6,
            "missing": 3,
            "children": [
              {
                "nodeid": 3,
                "depth": 3,
                "split": 6,
                "split_condition": 0.345,
                "yes": 4,
                "no": 5,
                "missing": 4,
                "children": [
                  {
                    "nodeid": 4,
                    "leaf": 0.087995337995338
                  },
                  {
                    "nodeid": 5,
                    "leaf": 0.7884615384615384
                  }
                ]
              },
              {
                "nodeid": 6,
                "depth": 3,
                "split": 55,
                "split_condition": 9.0,
                "yes": 7,
                "no": 8,
                "missing": 7,
                "children": [
                  {
                    "nodeid": 7,
                    "leaf": 0.2857142857142857
                  },
                  {
                    "nodeid": 8,
                    "leaf": 0.9772727272727273
                  }
                ]
              }
            ]
          },
          {
            "nodeid": 9,
            "depth": 2,
            "split": 24,
            "split_condition": 0.15500000000000003,
            "yes": 10,
            "no": 13,
            "missing": 10,
            "children": [
              {
                "nodeid": 10,
                "depth": 3,
                "split": 26,
                "split_condition": 0.3,
                "yes": 11,
                "no": 12,
                "missing": 11,
                "children": [
                  {
                    "nodeid": 11,
                    "leaf": 0.7616099071207431
                  },
                  {
                    "nodeid": 12,
                    "leaf": 0.021739130434782608
                  }
                ]
              },
              {
                "nodeid": 13,
                "depth": 3,
                "split": 55,
                "split_condition": 460.0,
                "yes": 14,
                "no": 15,
                "missing": 14,
                "children": [
                  {
                    "nodeid": 14,
                    "leaf": 0.04119850187265917
                  },
                  {
                    "nodeid": 15,
                    "leaf": 1.0
                  }
                ]
              }
            ]
          }
        ]
      },
      {
        "nodeid": 16,
        "depth": 1,
        "split": 24,
        "split_condition": 0.105,
        "yes": 17,
        "no": 24,
        "missing": 17,
        "children": [
          {
            "nodeid": 17,
            "depth": 2,
            "split": 45,
            "split_condition": 0.18,
            "yes": 18,
            "no": 21,
            "missing": 18,
            "children": [
              {
                "nodeid": 18,
                "depth": 3,
                "split": 26,
                "split_condition": 0.10500000000000001,
                "yes": 19,
                "no": 20,
                "missing": 19,
                "children": [
                  {
                    "nodeid": 19,
                    "leaf": 0.8953804347826086
                  },
                  {
                    "nodeid": 20,
                    "leaf": 0.0
                  }
                ]
              },
              {
                "nodeid": 21,
                "depth": 3,
                "split": 8,
                "split_condition": 0.24,
                "yes": 22,
                "no": 23,
                "missing": 22,
                "children": [
                  {
                    "nodeid": 22,
                    "leaf": 0.1388888888888889
                  },
                  {
                    "nodeid": 23,
                    "leaf": 1.0
                  }
                ]
              }
            ]
          },
          {
            "nodeid": 24,
            "depth": 2,
            "split": 51,
            "split_condition": 0.5325,
            "yes": 25,
            "no": 28,
            "missing": 25,
            "children": [
              {
                "nodeid": 25,
                "depth": 3,
                "split": 56,
                "split_condition": 115.0,
                "yes": 26,
                "no": 27,
                "missing": 26,
                "children": [
                  {
                    "nodeid": 26,
                    "leaf": 0.3888888888888889
                  },
                  {
                    "nodeid": 27,
                    "leaf": 0.016666666666666666
                  }
                ]
              },
              {
                "nodeid": 28,
                "leaf": 1.0
              }
            ]
          }
        ]
      }
    ]
  }
]