[
  {
    "nodeid": 0,
    "depth": 0,
    "split": 0,
    "split_condition": 6.5,
    "yes": 1,
    "no": 16,
    "missing": 1,
    "children": [
      {
        "nodeid": 1,
        "depth": 1,
        "split": 2,
        "split_condition": 875.0,
        "yes": 2,
        "no": 9,
        "missing": 2,
        "children": [
          {
            "nodeid": 2,
            "depth": 2,
            "split": 3,
            "split_condition": 2.5,
            "yes": 3,
            "no": 6,
            "missing": 3,
            "children": [
              {
                "nodeid": 3,
                "depth": 3,
                "split": 2,
                "split_condition": 375.0,
                "yes": 4,
                "no": 5,
                "missing": 4,
                "children": [
                  {
                    "nodeid": 4,
                    "leaf": 0.12
                  },
                  {
                    "nodeid": 5,
                    "leaf": 0.0
                  }
                ]
              },
              {
                "nodeid": 6,
                "depth": 3,
                "split": 3,
                "split_condition": 12.0,
                "yes": 7,
                "no": 8,
                "missing": 7,
                "children": [
                  {
                    "nodeid": 7,
                    "leaf": 0.3333333333333333
                  },
                  {
                    "nodeid": 8,
                    "leaf": 0.15384615384615385
                  }
                ]
              }
            ]
          },
          {
            "nodeid": 9,
            "depth": 2,
            "split": 3,
            "split_condition": 45.5,
            "yes": 10,
            "no": 13,
            "missing": 10,
            "children": [
              {
                "nodeid": 10,
                "depth": 3,
                "split": 1,
                "split_condition": 6.5,
                "yes": 11,
                "no": 12,
                "missing": 11,
                "children": [
                  {
                    "nodeid": 11,
                    "leaf": 0.5079365079365079
                  },
                  {
                    "nodeid": 12,
                    "leaf": 0.7619047619047619
                  }
                ]
              },
              {
                "nodeid": 13,
                "depth": 3,
                "split": 2,
                "split_condition": 2625.0,
                "yes": 14,
                "no": 15,
                "missing": 14,
                "children": [
                  {
                    "nodeid": 14,
                    "leaf": 0.08571428571428572
                  },
                  {
                    "nodeid": 15,
                    "leaf": 0.42857142857142855
                  }
                ]
              }
            ]
          }
        ]
      },
      {
        "nodeid": 16,
        "depth": 1,
        "split": 1,
        "split_condition": 4.5,
        "yes": 17,
        "no": 22,
        "missing": 17,
        "children": [
          {
            "nodeid": 17,
            "depth": 2,
            "split": 3,
            "split_condition": 40.5,
            "yes": 18,
            "no": 21,
            "missing": 18,
            "children": [
              {
                "nodeid": 18,
                "depth": 3,
                "split": 1,
                "split_condition": 1.5,
                "yes": 19,
                "no": 20,
                "missing": 19,
                "children": [
                  {
                    "nodeid": 19,
                    "leaf": 0.047619047619047616
                  },
                  {
                    "nodeid": 20,
                    "leaf": 0.13333333333333333
                  }
                ]
              },
              {
                "nodeid": 21,
                "leaf": 0.0
              }
            ]
          },
          {
            "nodeid": 22,
            "depth": 2,
            "split": 0,
            "split_condition": 24.5,
            "yes": 23,
            "no": 26,
            "missing": 23,
            "children": [
              {
                "nodeid": 23,
                "depth": 3,
                "split": 0,
                "split_condition": 11.5,
                "yes": 24,
                "no": 25,
                "missing": 24,
                "children": [
                  {
                    "nodeid": 24,
                    "leaf": 0.22
                  },
                  {
                    "nodeid": 25,
                    "leaf": 0.0967741935483871
                  }
                ]
              },
              {
                "nodeid": 26,
                "leaf": 1.0
              }
            ]
          }
        ]
      }
    ]
  }
]