[
  {
    "nodeid": 0,
    "depth": 0,
    "split": 26,
    "split_condition": 2025.0,
    "yes": 1,
    "no": 12,
    "missing": 1,
    "children": [
      {
        "nodeid": 1,
        "depth": 1,
        "split": 22,
        "split_condition": 91.0,
        "yes": 2,
        "no": 9,
        "missing": 2,
        "children": [
          {
            "nodeid": 2,
            "depth": 2,
            "split": 21,
            "split_condition": 16.899999618530273,
            "yes": 3,
            "no": 6,
            "missing": 3,
            "children": [
              {
                "nodeid": 3,
                "depth": 3,
                "split": 31,
                "split_condition": 2.549999952316284,
                "yes": 4,
                "no": 5,
                "missing": 4,
                "children": [
                  {
                    "nodeid": 4,
                    "leaf": 0.47560975609756095
                  },
                  {
                    "nodeid": 5,
                    "leaf": 0.17777777777777778
                  }
                ]
              },
              {
                "nodeid": 6,
                "depth": 3,
                "split": 28,
                "split_condition": 38.849998474121094,
                "yes": 7,
                "no": 8,
                "missing": 7,
                "children": [
                  {
                    "nodeid": 7,
                    "leaf": 1.0
                  },
                  {
                    "nodeid": 8,
                    "leaf": 0.0
                  }
                ]
              }
            ]
          },
          {
            "nodeid": 9,
            "depth": 2,
            "split": 21,
            "split_condition": 17.0,
            "yes": 10,
            "no": 11,
            "missing": 10,
            "children": [
              {
                "nodeid": 10,
                "leaf": 1.0
              },
              {
                "nodeid": 11,
                "leaf": 0.0
              }
            ]
          }
        ]
      },
      {
        "nodeid": 12,
        "depth": 1,
        "split": 27,
        "split_condition": 63.849998474121094,
        "yes": 13,
        "no": 20,
        "missing": 13,
        "children": [
          {
            "nodeid": 13,
            "depth": 2,
            "split": 33,
            "split_condition": 37.5,
            "yes": 14,
            "no": 17,
            "missing": 14,
            "children": [
              {
                "nodeid": 14,
                "depth": 3,
                "split": 11,
                "split_condition": 0.5,
                "yes": 15,
                "no": 16,
                "missing": 15,
                "children": [
                  {
                    "nodeid": 15,
                    "leaf": 0.2727272727272727
                  },
                  {
                    "nodeid": 16,
                    "leaf": 0.02
                  }
                ]
              },
              {
                "nodeid": 17,
                "depth": 3,
                "split": 23,
                "split_condition": 1.0,
                "yes": 18,
                "no": 19,
                "missing": 18,
                "children": [
                  {
                    "nodeid": 18,
                    "leaf": 1.0
                  },
                  {
                    "nodeid": 19,
                    "leaf": 0.0
                  }
                ]
              }
            ]
          },
          {
            "nodeid": 20,
            "depth": 2,
            "split": 27,
            "split_condition": 65.94999694824219,
            "yes": 21,
            "no": 22,
            "missing": 21,
            "children": [
              {
                "nodeid": 21,
                "leaf": 1.0
              },
              {
                "nodeid": 22,
                "leaf": 0.0
              }
            ]
          }
        ]
      }
    ]
  }
]