[
  {
    "nodeid": 0,
    "depth": 0,
    "split": 1,
    "split_condition": 127.5,
    "yes": 1,
    "no": 16,
    "missing": 1,
    "children": [
      {
        "nodeid": 1,
        "depth": 1,
        "split": 7,
        "split_condition": 28.5,
        "yes": 2,
        "no": 9,
        "missing": 2,
        "children": [
          {
            "nodeid": 2,
            "depth": 2,
            "split": 5,
            "split_condition": 45.39999961853027,
            "yes": 3,
            "no": 6,
            "missing": 3,
            "children": [
              {
                "nodeid": 3,
                "depth": 3,
                "split": 5,
                "split_condition": 30.949999809265137,
                "yes": 4,
                "no": 5,
                "missing": 4,
                "children": [
                  {
                    "nodeid": 4,
                    "leaf": 0.015625
                  },
                  {
                    "nodeid": 5,
                    "leaf": 0.16304347826086957
                  }
                ]
              },
              {
                "nodeid": 6,
                "depth": 3,
                "split": 1,
                "split_condition": 119.0,
                "yes": 7,
                "no": 8,
                "missing": 7,
                "children": [
                  {
                    "nodeid": 7,
                    "leaf": 1.0
                  },
                  {
                    "nodeid": 8,
                    "leaf": 0.0
                  }
                ]
              }
            ]
          },
          {
            "nodeid": 9,
            "depth": 2,
            "split": 5,
            "split_condition": 26.949999809265137,
            "yes": 10,
            "no": 13,
            "missing": 10,
            "children": [
              {
                "nodeid": 10,
                "depth": 3,
                "split": 5,
                "split_condition": 9.649999618530273,
                "yes": 11,
                "no": 12,
                "missing": 11,
                "children": [
                  {
                    "nodeid": 11,
                    "leaf": 1.0
                  },
                  {
                    "nodeid": 12,
                    "leaf": 0.0
                  }
                ]
              },
              {
                "nodeid": 13,
                "depth": 3,
                "split": 1,
                "split_condition": 99.5,
                "yes": 14,
                "no": 15,
                "missing": 14,
                "children": [
                  {
                    "nodeid": 14,
                    "leaf": 0.1956521739130435
                  },
                  {
                    "nodeid": 15,
                    "leaf": 0.5333333333333333
                  }
                ]
              }
            ]
          }
        ]
      },
      {
        "nodeid": 16,
        "depth": 1,
        "split": 5,
        "split_condition": 29.949999809265137,
        "yes": 17,
        "no": 24,
        "missing": 17,
        "children": [
          {
            "nodeid": 17,
            "depth": 2,
            "split": 1,
            "split_condition": 145.5,
            "yes": 18,
            "no": 21,
            "missing": 18,
            "children": [
              {
                "nodeid": 18,
                "depth": 3,
                "split": 3,
                "split_condition": 34.5,
                "yes": 19,
                "no": 20,
                "missing": 19,
                "children": [
                  {
                    "nodeid": 19,
                    "leaf": 0.125
                  },
                  {
                    "nodeid": 20,
                    "leaf": 1.0
                  }
                ]
              },
              {
                "nodeid": 21,
                "depth": 3,
                "split": 7,
                "split_condition": 25.5,
                "yes": 22,
                "no": 23,
                "missing": 22,
                "children": [
                  {
                    "nodeid": 22,
                    "leaf": 0.0
                  },
                  {
                    "nodeid": 23,
                    "leaf": 0.5909090909090909
                  }
                ]
              }
            ]
          },
          {
            "nodeid": 24,
            "depth": 2,
            "split": 1,
            "split_condition": 157.5,
            "yes": 25,
            "no": 28,
            "missing": 25,
            "children": [
              {
                "nodeid": 25,
                "depth": 3,
                "split": 7,
                "split_condition": 30.5,
                "yes": 26,
                "no": 27,
                "missing": 26,
                "children": [
                  {
                    "nodeid": 26,
                    "leaf": 0.4318181818181818
                  },
                  {
                    "nodeid": 27,
                    "leaf": 0.7608695652173914
                  }
                ]
              },
              {
                "nodeid": 28,
                "depth": 3,
                "split": 4,
                "split_condition": 629.5,
                "yes": 29,
                "no": 30,
                "missing": 29,
                "children": [
                  {
                    "nodeid": 29,
                    "leaf": 0.9
                  },
                  {
                    "nodeid": 30,
                    "leaf": 0.0
                  }
                ]
              }
            ]
          }
        ]
      }
    ]
  }
]