[
  {
    "nodeid": 0,
    "depth": 0,
    "split": 1,
    "split_condition": 143.5,
    "yes": 1,
    "no": 16,
    "missing": 1,
    "children": [
      {
        "nodeid": 1,
        "depth": 1,
        "split": 1,
        "split_condition": 108.5,
        "yes": 2,
        "no": 9,
        "missing": 2,
        "children": [
          {
            "nodeid": 2,
            "depth": 2,
            "split": 0,
            "split_condition": 4.5,
            "yes": 3,
            "no": 6,
            "missing": 3,
            "children": [
              {
                "nodeid": 3,
                "depth": 3,
                "split": 5,
                "split_condition": 32.80000114440918,
                "yes": 4,
                "no": 5,
                "missing": 4,
                "children": [
                  {
                    "nodeid": 4,
                    "leaf": 0.0
                  },
                  {
                    "nodeid": 5,
                    "leaf": 0.15789473684210525
                  }
                ]
              },
              {
                "nodeid": 6,
                "depth": 3,
                "split": 6,
                "split_condition": 0.9020000100135803,
                "yes": 7,
                "no": 8,
                "missing": 7,
                "children": [
                  {
                    "nodeid": 7,
                    "leaf": 0.1791044776119403
                  },
                  {
                    "nodeid": 8,
                    "leaf": 0.8
                  }
                ]
              }
            ]
          },
          {
            "nodeid": 9,
            "depth": 2,
            "split": 5,
            "split_condition": 26.949999809265137,
            "yes": 10,
            "no": 13,
            "missing": 10,
            "children": [
              {
                "nodeid": 10,
                "depth": 3,
                "split": 1,
                "split_condition": 124.5,
                "yes": 11,
                "no": 12,
                "missing": 11,
                "children": [
                  {
                    "nodeid": 11,
                    "leaf": 0.0
                  },
                  {
                    "nodeid": 12,
                    "leaf": 0.15
                  }
                ]
              },
              {
                "nodeid": 13,
                "depth": 3,
                "split": 7,
                "split_condition": 30.5,
                "yes": 14,
                "no": 15,
                "missing": 14,
                "children": [
                  {
                    "nodeid": 14,
                    "leaf": 0.30097087378640774
                  },
                  {
                    "nodeid": 15,
                    "leaf": 0.5977011494252874
                  }
                ]
              }
            ]
          }
        ]
      },
      {
        "nodeid": 16,
        "depth": 1,
        "split": 1,
        "split_condition": 166.5,
        "yes": 17,
        "no": 24,
        "missing": 17,
        "children": [
          {
            "nodeid": 17,
            "depth": 2,
            "split": 0,
            "split_condition": 6.5,
            "yes": 18,
            "no": 21,
            "missing": 18,
            "children": [
              {
                "nodeid": 18,
                "depth": 3,
                "split": 7,
                "split_condition": 24.5,
                "yes": 19,
                "no": 20,
                "missing": 19,
                "children": [
                  {
                    "nodeid": 19,
                    "leaf": 0.125
                  },
                  {
                    "nodeid": 20,
                    "leaf": 0.5625
                  }
                ]
              },
              {
                "nodeid": 21,
                "depth": 3,
                "split": 6,
                "split_condition": 0.16450000554323196,
                "yes": 22,
                "no": 23,
                "missing": 22,
                "children": [
                  {
                    "nodeid": 22,
                    "leaf": 0.0
                  },
                  {
                    "nodeid": 23,
                    "leaf": 0.9090909090909091
                  }
                ]
              }
            ]
          },
          {
            "nodeid": 24,
            "depth": 2,
            "split": 2,
            "split_condition": 93.0,
            "yes": 25,
            "no": 28,
            "missing": 25,
            "children": [
              {
                "nodeid": 25,
                "depth": 3,
                "split": 5,
                "split_condition": 23.09999942779541,
                "yes": 26,
                "no": 27,
                "missing": 26,
                "children": [
                  {
                    "nodeid": 26,
                    "leaf": 0.0
                  },
                  {
                    "nodeid": 27,
                    "leaf": 0.9464285714285714
                  }
                ]
              },
              {
                "nodeid": 28,
                "depth": 3,
                "split": 1,
                "split_condition": 175.0,
                "yes": 29,
                "no": 30,
                "missing": 29,
                "children": [
                  {
                    "nodeid": 29,
                    "leaf": 1.0
                  },
                  {
                    "nodeid": 30,
                    "leaf": 0.25
                  }
                ]
              }
            ]
          }
        ]
      }
    ]
  }
]