[
  {
    "nodeid": 0,
    "depth": 0,
    "split": 10,
    "split_condition": 0.19824999570846558,
    "yes": 1,
    "no": 14,
    "missing": 1,
    "children": [
      {
        "nodeid": 1,
        "depth": 1,
        "split": 44,
        "split_condition": 0.1603499948978424,
        "yes": 2,
        "no": 9,
        "missing": 2,
        "children": [
          {
            "nodeid": 2,
            "depth": 2,
            "split": 34,
            "split_condition": 0.0556000005453825,
            "yes": 3,
            "no": 6,
            "missing": 3,
            "children": [
              {
                "nodeid": 3,
                "depth": 3,
                "split": 57,
                "split_condition": 0.004100000020116568,
                "yes": 4,
                "no": 5,
                "missing": 4,
                "children": [
                  {
                    "nodeid": 4,
                    "leaf": 0.0
                  },
                  {
                    "nodeid": 5,
                    "leaf": 1.0
                  }
                ]
              },
              {
                "nodeid": 6,
                "depth": 3,
                "split": 43,
                "split_condition": 0.029600000008940697,
                "yes": 7,
                "no": 8,
                "missing": 7,
                "children": [
                  {
                    "nodeid": 7,
                    "leaf": 1.0
                  },
                  {
                    "nodeid": 8,
                    "leaf": 0.0
                  }
                ]
              }
            ]
          },
          {
            "nodeid": 9,
            "depth": 2,
            "split": 3,
            "split_condition": 0.050699999555945396,
            "yes": 10,
            "no": 13,
            "missing": 10,
            "children": [
              {
                "nodeid": 10,
                "depth": 3,
                "split": 19,
                "split_condition": 0.5032999962568283,
                "yes": 11,
                "no": 12,
                "missing": 11,
                "children": [
                  {
                    "nodeid": 11,
                    "leaf": 0.0
                  },
                  {
                    "nodeid": 12,
                    "leaf": 1.0
                  }
                ]
              },
              {
                "nodeid": 13,
                "leaf": 1.0
              }
            ]
          }
        ]
      },
      {
        "nodeid": 14,
        "depth": 1,
        "split": 51,
        "split_condition": 0.004650000017136335,
        "yes": 15,
        "no": 18,
        "missing": 15,
        "children": [
          {
            "nodeid": 15,
            "depth": 2,
            "split": 57,
            "split_condition": 0.016799999866634607,
            "yes": 16,
            "no": 17,
            "missing": 16,
            "children": [
              {
                "nodeid": 16,
                "leaf": 0.0
              },
              {
                "nodeid": 17,
                "leaf": 1.0
              }
            ]
          },
          {
            "nodeid": 18,
            "depth": 2,
            "split": 36,
            "split_condition": 0.4786999970674515,
            "yes": 19,
            "no": 22,
            "missing": 19,
            "children": [
              {
                "nodeid": 19,
                "depth": 3,
                "split": 17,
                "split_condition": 0.1339999958872795,
                "yes": 20,
                "no": 21,
                "missing": 20,
                "children": [
                  {
                    "nodeid": 20,
                    "leaf": 0.0
                  },
                  {
                    "nodeid": 21,
                    "leaf": 0.9666666666666667
                  }
                ]
              },
              {
                "nodeid": 22,
                "depth": 3,
                "split": 44,
                "split_condition": 0.25200000405311584,
                "yes": 23,
                "no": 24,
                "missing": 23,
                "children": [
                  {
                    "nodeid": 23,
                    "leaf": 0.07692307692307693
                  },
                  {
                    "nodeid": 24,
                    "leaf": 1.0
                  }
                ]
              }
            ]
          }
        ]
      }
    ]
  }
]