[
  {
    "nodeid": 0,
    "depth": 0,
    "split": 21,
    "split_condition": 0.133993498980999,
    "yes": 1,
    "no": 10,
    "missing": 1,
    "children": [
      {
        "nodeid": 1,
        "depth": 1,
        "split": 1,
        "split_condition": 202.30999755859375,
        "yes": 2,
        "no": 5,
        "missing": 2,
        "children": [
          {
            "nodeid": 2,
            "depth": 2,
            "split": 15,
            "split_condition": 25.793999671936035,
            "yes": 3,
            "no": 4,
            "missing": 3,
            "children": [
              {
                "nodeid": 3,
                "leaf": 0.0
              },
              {
                "nodeid": 4,
                "leaf": 1.0
              }
            ]
          },
          {
            "nodeid": 5,
            "depth": 2,
            "split": 19,
            "split_condition": 0.24362149834632874,
            "yes": 6,
            "no": 9,
            "missing": 6,
            "children": [
              {
                "nodeid": 6,
                "depth": 3,
                "split": 20,
                "split_condition": 2.8089429140090942,
                "yes": 7,
                "no": 8,
                "missing": 7,
                "children": [
                  {
                    "nodeid": 7,
                    "leaf": 0.0
                  },
                  {
                    "nodeid": 8,
                    "leaf": 1.0
                  }
                ]
              },
              {
                "nodeid": 9,
                "leaf": 1.0
              }
            ]
          }
        ]
      },
      {
        "nodeid": 10,
        "depth": 1,
        "split": 9,
        "split_condition": 0.1899999976158142,
        "yes": 11,
        "no": 18,
        "missing": 11,
        "children": [
          {
            "nodeid": 11,
            "depth": 2,
            "split": 0,
            "split_condition": 117.98649978637695,
            "yes": 12,
            "no": 15,
            "missing": 12,
            "children": [
              {
                "nodeid": 12,
                "depth": 3,
                "split": 15,
                "split_condition": 26.664000511169434,
                "yes": 13,
                "no": 14,
                "missing": 13,
                "children": [
                  {
                    "nodeid": 13,
                    "leaf": 0.0
                  },
                  {
                    "nodeid": 14,
                    "leaf": 1.0
                  }
                ]
              },
              {
                "nodeid": 15,
                "depth": 3,
                "split": 13,
                "split_condition": 0.03649500012397766,
                "yes": 16,
                "no": 17,
                "missing": 16,
                "children": [
                  {
                    "nodeid": 16,
                    "leaf": 1.0
                  },
                  {
                    "nodeid": 17,
                    "leaf": 0.0
                  }
                ]
              }
            ]
          },
          {
            "nodeid": 18,
            "leaf": 1.0
          }
        ]
      }
    ]
  }
]