[
  {
    "nodeid": 0,
    "depth": 0,
    "split": 4,
    "split_condition": 0.1459750011563301,
    "yes": 1,
    "no": 6,
    "missing": 1,
    "children": [
      {
        "nodeid": 1,
        "depth": 1,
        "split": 4,
        "split_condition": 0.041439998894929886,
        "yes": 2,
        "no": 3,
        "missing": 2,
        "children": [
          {
            "nodeid": 2,
            "leaf": 1.0
          },
          {
            "nodeid": 3,
            "depth": 2,
            "split": 4,
            "split_condition": 0.06231500022113323,
            "yes": 4,
            "no": 5,
            "missing": 4,
            "children": [
              {
                "nodeid": 4,
                "leaf": 0.0
              },
              {
                "nodeid": 5,
                "leaf": 1.0
              }
            ]
          }
        ]
      },
      {
        "nodeid": 6,
        "depth": 1,
        "split": 26,
        "split_condition": 0.9999450147151947,
        "yes": 7,
        "no": 12,
        "missing": 7,
        "children": [
          {
            "nodeid": 7,
            "depth": 2,
            "split": 11,
            "split_condition": -0.5839999914169312,
            "yes": 8,
            "no": 9,
            "missing": 8,
            "children": [
              {
                "nodeid": 8,
                "leaf": 1.0
              },
              {
                "nodeid": 9,
                "depth": 3,
                "split": 9,
                "split_condition": -0.755854994058609,
                "yes": 10,
                "no": 11,
                "missing": 10,
                "children": [
                  {
                    "nodeid": 10,
                    "leaf": 1.0
                  },
                  {
                    "nodeid": 11,
                    "leaf": 0.045714285714285714
                  }
                ]
              }
            ]
          },
          {
            "nodeid": 12,
            "depth": 2,
            "split": 32,
            "split_condition": 0.5082300007343292,
            "yes": 13,
            "no": 14,
            "missing": 13,
            "children": [
              {
                "nodeid": 13,
                "leaf": 1.0
              },
              {
                "nodeid": 14,
                "depth": 3,
                "split": 3,
                "split_condition": -0.3505450040102005,
                "yes": 15,
                "no": 16,
                "missing": 15,
                "children": [
                  {
                    "nodeid": 15,
                    "leaf": 1.0
                  },
                  {
                    "nodeid": 16,
                    "leaf": 0.3125
                  }
                ]
              }
            ]
          }
        ]
      }
    ]
  }
]