[
  {
    "nodeid": 0,
    "depth": 0,
    "split": 10,
    "split_condition": 0.19794999808073044,
    "yes": 1,
    "no": 12,
    "missing": 1,
    "children": [
      {
        "nodeid": 1,
        "depth": 1,
        "split": 3,
        "split_condition": 0.051500000059604645,
        "yes": 2,
        "no": 7,
        "missing": 2,
        "children": [
          {
            "nodeid": 2,
            "depth": 2,
            "split": 0,
            "split_condition": 0.039250001311302185,
            "yes": 3,
            "no": 6,
            "missing": 3,
            "children": [
              {
                "nodeid": 3,
                "depth": 3,
                "split": 27,
                "split_condition": 0.9907000064849854,
                "yes": 4,
                "no": 5,
                "missing": 4,
                "children": [
                  {
                    "nodeid": 4,
                    "leaf": 0.02040816326530612
                  },
                  {
                    "nodeid": 5,
                    "leaf": 1.0
                  }
                ]
              },
              {
                "nodeid": 6,
                "leaf": 1.0
              }
            ]
          },
          {
            "nodeid": 7,
            "depth": 2,
            "split": 44,
            "split_condition": 0.1546500027179718,
            "yes": 8,
            "no": 11,
            "missing": 8,
            "children": [
              {
                "nodeid": 8,
                "depth": 3,
                "split": 8,
                "split_condition": 0.05584999918937683,
                "yes": 9,
                "no": 10,
                "missing": 9,
                "children": [
                  {
                    "nodeid": 9,
                    "leaf": 1.0
                  },
                  {
                    "nodeid": 10,
                    "leaf": 0.0
                  }
                ]
              },
              {
                "nodeid": 11,
                "leaf": 1.0
              }
            ]
          }
        ]
      },
      {
        "nodeid": 12,
        "depth": 1,
        "split": 16,
        "split_condition": 0.6929000020027161,
        "yes": 13,
        "no": 20,
        "missing": 13,
        "children": [
          {
            "nodeid": 13,
            "depth": 2,
            "split": 28,
            "split_condition": 0.3099000006914139,
            "yes": 14,
            "no": 17,
            "missing": 14,
            "children": [
              {
                "nodeid": 14,
                "depth": 3,
                "split": 14,
                "split_condition": 0.12360000237822533,
                "yes": 15,
                "no": 16,
                "missing": 15,
                "children": [
                  {
                    "nodeid": 15,
                    "leaf": 1.0
                  },
                  {
                    "nodeid": 16,
                    "leaf": 0.0
                  }
                ]
              },
              {
                "nodeid": 17,
                "depth": 3,
                "split": 48,
                "split_condition": 0.022450000047683716,
                "yes": 18,
                "no": 19,
                "missing": 18,
                "children": [
                  {
                    "nodeid": 18,
                    "leaf": 0.4
                  },
                  {
                    "nodeid": 19,
                    "leaf": 0.9833333333333333
                  }
                ]
              }
            ]
          },
          {
            "nodeid": 20,
            "depth": 2,
            "split": 52,
            "split_condition": 0.01280000014230609,
            "yes": 21,
            "no": 24,
            "missing": 21,
            "children": [
              {
                "nodeid": 21,
                "depth": 3,
                "split": 22,
                "split_condition": 0.8858999907970428,
                "yes": 22,
                "no": 23,
                "missing": 22,
                "children": [
                  {
                    "nodeid": 22,
                    "leaf": 0.0625
                  },
                  {
                    "nodeid": 23,
                    "leaf": 1.0
                  }
                ]
              },
              {
                "nodeid": 24,
                "depth": 3,
                "split": 56,
                "split_condition": 0.02440000046044588,
                "yes": 25,
                "no": 26,
                "missing": 25,
                "children": [
                  {
                    "nodeid": 25,
                    "leaf": 1.0
                  },
                  {
                    "nodeid": 26,
                    "leaf": 0.0
                  }
                ]
              }
            ]
          }
        ]
      }
    ]
  }
]