[
  {
    "nodeid": 0,
    "depth": 0,
    "split": 21,
    "split_condition": 0.133993498980999,
    "yes": 1,
    "no": 10,
    "missing": 1,
    "children": [
      {
        "nodeid": 1,
        "depth": 1,
        "split": 1,
        "split_condition": 229.1804962158203,
        "yes": 2,
        "no": 9,
        "missing": 2,
        "children": [
          {
            "nodeid": 2,
            "depth": 2,
            "split": 20,
            "split_condition": 2.160831928253174,
            "yes": 3,
            "no": 6,
            "missing": 3,
            "children": [
              {
                "nodeid": 3,
                "depth": 3,
                "split": 16,
                "split_condition": 0.36701150238513947,
                "yes": 4,
                "no": 5,
                "missing": 4,
                "children": [
                  {
                    "nodeid": 4,
                    "leaf": 1.0
                  },
                  {
                    "nodeid": 5,
                    "leaf": 0.0
                  }
                ]
              },
              {
                "nodeid": 6,
                "depth": 3,
                "split": 1,
                "split_condition": 145.78500366210938,
                "yes": 7,
                "no": 8,
                "missing": 7,
                "children": [
                  {
                    "nodeid": 7,
                    "leaf": 0.0
                  },
                  {
                    "nodeid": 8,
                    "leaf": 1.0
                  }
                ]
              }
            ]
          },
          {
            "nodeid": 9,
            "leaf": 0.0
          }
        ]
      },
      {
        "nodeid": 10,
        "depth": 1,
        "split": 19,
        "split_condition": 0.19989949464797974,
        "yes": 11,
        "no": 18,
        "missing": 11,
        "children": [
          {
            "nodeid": 11,
            "depth": 2,
            "split": 9,
            "split_condition": 0.19600000232458115,
            "yes": 12,
            "no": 15,
            "missing": 12,
            "children": [
              {
                "nodeid": 12,
                "depth": 3,
                "split": 2,
                "split_condition": 120.12300109863281,
                "yes": 13,
                "no": 14,
                "missing": 13,
                "children": [
                  {
                    "nodeid": 13,
                    "leaf": 0.2
                  },
                  {
                    "nodeid": 14,
                    "leaf": 1.0
                  }
                ]
              },
              {
                "nodeid": 15,
                "depth": 3,
                "split": 20,
                "split_condition": 2.7151354551315308,
                "yes": 16,
                "no": 17,
                "missing": 16,
                "children": [
                  {
                    "nodeid": 16,
                    "leaf": 1.0
                  },
                  {
                    "nodeid": 17,
                    "leaf": 0.0
                  }
                ]
              }
            ]
          },
          {
            "nodeid": 18,
            "depth": 2,
            "split": 18,
            "split_condition": -6.736269950866699,
            "yes": 19,
            "no": 20,
            "missing": 19,
            "children": [
              {
                "nodeid": 19,
                "leaf": 0.0
              },
              {
                "nodeid": 20,
                "leaf": 1.0
              }
            ]
          }
        ]
      }
    ]
  }
]