[
  {
    "nodeid": 0,
    "depth": 0,
    "split": 5,
    "split_condition": 64.5,
    "yes": 1,
    "no": 10,
    "missing": 1,
    "children": [
      {
        "nodeid": 1,
        "depth": 1,
        "split": 19,
        "split_condition": 77.5,
        "yes": 2,
        "no": 7,
        "missing": 2,
        "children": [
          {
            "nodeid": 2,
            "depth": 2,
            "split": 23,
            "split_condition": 77.5,
            "yes": 3,
            "no": 4,
            "missing": 3,
            "children": [
              {
                "nodeid": 3,
                "leaf": 1.0
              },
              {
                "nodeid": 4,
                "depth": 3,
                "split": 6,
                "split_condition": 72.5,
                "yes": 5,
                "no": 6,
                "missing": 5,
                "children": [
                  {
                    "nodeid": 5,
                    "leaf": 1.0
                  },
                  {
                    "nodeid": 6,
                    "leaf": 0.0
                  }
                ]
              }
            ]
          },
          {
            "nodeid": 7,
            "depth": 2,
            "split": 14,
            "split_condition": 58.5,
            "yes": 8,
            "no": 9,
            "missing": 8,
            "children": [
              {
                "nodeid": 8,
                "leaf": 1.0
              },
              {
                "nodeid": 9,
                "leaf": 0.0
              }
            ]
          }
        ]
      },
      {
        "nodeid": 10,
        "depth": 1,
        "split": 39,
        "split_condition": 70.5,
        "yes": 11,
        "no": 16,
        "missing": 11,
        "children": [
          {
            "nodeid": 11,
            "depth": 2,
            "split": 40,
            "split_condition": 77.5,
            "yes": 12,
            "no": 15,
            "missing": 12,
            "children": [
              {
                "nodeid": 12,
                "depth": 3,
                "split": 24,
                "split_condition": 74.5,
                "yes": 13,
                "no": 14,
                "missing": 13,
                "children": [
                  {
                    "nodeid": 13,
                    "leaf": 0.8909090909090909
                  },
                  {
                    "nodeid": 14,
                    "leaf": 0.4
                  }
                ]
              },
              {
                "nodeid": 15,
                "leaf": 0.0
              }
            ]
          },
          {
            "nodeid": 16,
            "depth": 2,
            "split": 42,
            "split_condition": 50.5,
            "yes": 17,
            "no": 18,
            "missing": 17,
            "children": [
              {
                "nodeid": 17,
                "leaf": 1.0
              },
              {
                "nodeid": 18,
                "depth": 3,
                "split": 28,
                "split_condition": 62.5,
                "yes": 19,
                "no": 20,
                "missing": 19,
                "children": [
                  {
                    "nodeid": 19,
                    "leaf": 0.7777777777777778
                  },
                  {
                    "nodeid": 20,
                    "leaf": 0.34146341463414637
                  }
                ]
              }
            ]
          }
        ]
      }
    ]
  }
]