[
  {
    "nodeid": 0,
    "depth": 0,
    "split": 0,
    "split_condition": -0.026096000336110592,
    "yes": 1,
    "no": 12,
    "missing": 1,
    "children": [
      {
        "nodeid": 1,
        "depth": 1,
        "split": 3,
        "split_condition": 0.09246250241994858,
        "yes": 2,
        "no": 7,
        "missing": 2,
        "children": [
          {
            "nodeid": 2,
            "depth": 2,
            "split": 7,
            "split_condition": -0.6129599809646606,
            "yes": 3,
            "no": 4,
            "missing": 3,
            "children": [
              {
                "nodeid": 3,
                "leaf": 1.0
              },
              {
                "nodeid": 4,
                "depth": 3,
                "split": 3,
                "split_condition": -0.24828999489545822,
                "yes": 5,
                "no": 6,
                "missing": 5,
                "children": [
                  {
                    "nodeid": 5,
                    "leaf": 0.3684210526315789
                  },
                  {
                    "nodeid": 6,
                    "leaf": 0.05
                  }
                ]
              }
            ]
          },
          {
            "nodeid": 7,
            "depth": 2,
            "split": 0,
            "split_condition": -0.6649549901485443,
            "yes": 8,
            "no": 9,
            "missing": 8,
            "children": [
              {
                "nodeid": 8,
                "leaf": 0.0
              },
              {
                "nodeid": 9,
                "depth": 3,
                "split": 4,
                "split_condition": 0.6343249976634979,
                "yes": 10,
                "no": 11,
                "missing": 10,
                "children": [
                  {
                    "nodeid": 10,
                    "leaf": 0.8
                  },
                  {
                    "nodeid": 11,
                    "leaf": 0.25
                  }
                ]
              }
            ]
          }
        ]
      },
      {
        "nodeid": 12,
        "depth": 1,
        "split": 3,
        "split_condition": -0.1756500005722046,
        "yes": 13,
        "no": 18,
        "missing": 13,
        "children": [
          {
            "nodeid": 13,
            "depth": 2,
            "split": 3,
            "split_condition": -0.239205002784729,
            "yes": 14,
            "no": 17,
            "missing": 14,
            "children": [
              {
                "nodeid": 14,
                "depth": 3,
                "split": 3,
                "split_condition": -0.8726699948310852,
                "yes": 15,
                "no": 16,
                "missing": 15,
                "children": [
                  {
                    "nodeid": 15,
                    "leaf": 1.0
                  },
                  {
                    "nodeid": 16,
                    "leaf": 0.15789473684210525
                  }
                ]
              },
              {
                "nodeid": 17,
                "leaf": 1.0
              }
            ]
          },
          {
            "nodeid": 18,
            "depth": 2,
            "split": 7,
            "split_condition": 0.9988549947738647,
            "yes": 19,
            "no": 22,
            "missing": 19,
            "children": [
              {
                "nodeid": 19,
                "depth": 3,
                "split": 0,
                "split_condition": 0.5780650079250336,
                "yes": 20,
                "no": 21,
                "missing": 20,
                "children": [
                  {
                    "nodeid": 20,
                    "leaf": 0.025
                  },
                  {
                    "nodeid": 21,
                    "leaf": 0.25
                  }
                ]
              },
              {
                "nodeid": 22,
                "leaf": 1.0
              }
            ]
          }
        ]
      }
    ]
  }
]