[
  {
    "nodeid": 0,
    "depth": 0,
    "split": 11,
    "split_condition": -0.80969,
    "yes": 1,
    "no": 6,
    "missing": 1,
    "children": [
      {
        "nodeid": 1,
        "depth": 1,
        "split": 0,
        "split_condition": 0.040648,
        "yes": 2,
        "no": 5,
        "missing": 2,
        "children": [
          {
            "nodeid": 2,
            "depth": 2,
            "split": 0,
            "split_condition": -2.0346,
            "yes": 3,
            "no": 4,
            "missing": 3,
            "children": [
              {
                "nodeid": 3,
                "leaf": 0.9997419009159111
              },
              {
                "nodeid": 4,
                "leaf": 0.9999999962747635
              }
            ]
          },
          {
            "nodeid": 5,
            "leaf": 0.2797203056860029
          }
        ]
      },
      {
        "nodeid": 6,
        "depth": 1,
        "split": 0,
        "split_condition": -0.82742,
        "yes": 7,
        "no": 8,
        "missing": 7,
        "children": [
          {
            "nodeid": 7,
            "leaf": -1.8495292498921234e-08
          },
          {
            "nodeid": 8,
            "depth": 2,
            "split": 0,
            "split_condition": 0.74227,
            "yes": 9,
            "no": 12,
            "missing": 9,
            "children": [
              {
                "nodeid": 9,
                "depth": 3,
                "split": 9,
                "split_condition": 0.77408,
                "yes": 10,
                "no": 11,
                "missing": 10,
                "children": [
                  {
                    "nodeid": 10,
                    "leaf": 0.27972027245824155
                  },
                  {
                    "nodeid": 11,
                    "leaf": -1.6308099928807884e-07
                  }
                ]
              },
              {
                "nodeid": 12,
                "leaf": -1.114901060361717e-09
              }
            ]
          }
        ]
      }
    ]
  }
]