[
  {
    "nodeid": 0,
    "depth": 0,
    "split": 9,
    "split_condition": -1.212,
    "yes": 1,
    "no": 6,
    "missing": 1,
    "children": [
      {
        "nodeid": 1,
        "depth": 1,
        "split": 2,
        "split_condition": -0.24034,
        "yes": 2,
        "no": 3,
        "missing": 2,
        "children": [
          {
            "nodeid": 2,
            "leaf": 0.2746479238675367
          },
          {
            "nodeid": 3,
            "depth": 2,
            "split": 0,
            "split_condition": -1.667,
            "yes": 4,
            "no": 5,
            "missing": 4,
            "children": [
              {
                "nodeid": 4,
                "leaf": 0.9997426922224011
              },
              {
                "nodeid": 5,
                "leaf": 0.9999999962747637
              }
            ]
          }
        ]
      },
      {
        "nodeid": 6,
        "depth": 1,
        "split": 0,
        "split_condition": -0.93788,
        "yes": 7,
        "no": 8,
        "missing": 7,
        "children": [
          {
            "nodeid": 7,
            "leaf": -9.9143750986741e-09
          },
          {
            "nodeid": 8,
            "depth": 2,
            "split": 0,
            "split_condition": 0.00975,
            "yes": 9,
            "no": 12,
            "missing": 9,
            "children": [
              {
                "nodeid": 9,
                "depth": 3,
                "split": 1,
                "split_condition": 0.73167,
                "yes": 10,
                "no": 11,
                "missing": 10,
                "children": [
                  {
                    "nodeid": 10,
                    "leaf": 0.3194288951740957
                  },
                  {
                    "nodeid": 11,
                    "leaf": 0.9999999659671166
                  }
                ]
              },
              {
                "nodeid": 12,
                "depth": 3,
                "split": 1,
                "split_condition": 0.57689,
                "yes": 13,
                "no": 14,
                "missing": 13,
                "children": [
                  {
                    "nodeid": 13,
                    "leaf": 0.23880324069328865
                  },
                  {
                    "nodeid": 14,
                    "leaf": 7.181706090930717e-09
                  }
                ]
              }
            ]
          }
        ]
      }
    ]
  }
]