[
  {
    "nodeid": 0,
    "depth": 0,
    "split": 0,
    "split_condition": 5.0,
    "yes": 1,
    "no": 14,
    "missing": 1,
    "children": [
      {
        "nodeid": 1,
        "depth": 1,
        "split": 1,
        "split_condition": 3.0,
        "yes": 2,
        "no": 7,
        "missing": 2,
        "children": [
          {
            "nodeid": 2,
            "depth": 2,
            "split": 0,
            "split_condition": 1.0,
            "yes": 3,
            "no": 4,
            "missing": 3,
            "children": [
              {
                "nodeid": 3,
                "leaf": -7.16093850883226e-15
              },
              {
                "nodeid": 4,
                "depth": 3,
                "split": 3,
                "split_condition": 34.0,
                "yes": 5,
                "no": 6,
                "missing": 5,
                "children": [
                  {
                    "nodeid": 5,
                    "leaf": 0.27083333375626006
                  },
                  {
                    "nodeid": 6,
                    "leaf": 0.2815535811406781
                  }
                ]
              }
            ]
          },
          {
            "nodeid": 7,
            "depth": 2,
            "split": 1,
            "split_condition": 18.0,
            "yes": 8,
            "no": 11,
            "missing": 8,
            "children": [
              {
                "nodeid": 8,
                "depth": 3,
                "split": 3,
                "split_condition": 81.0,
                "yes": 9,
                "no": 10,
                "missing": 9,
                "children": [
                  {
                    "nodeid": 9,
                    "leaf": 0.4390661370153155
                  },
                  {
                    "nodeid": 10,
                    "leaf": 0.09993483322973042
                  }
                ]
              },
              {
                "nodeid": 11,
                "depth": 3,
                "split": 1,
                "split_condition": 22.0,
                "yes": 12,
                "no": 13,
                "missing": 12,
                "children": [
                  {
                    "nodeid": 12,
                    "leaf": 1.00001069714574
                  },
                  {
                    "nodeid": 13,
                    "leaf": 0.5000406725271302
                  }
                ]
              }
            ]
          }
        ]
      },
      {
        "nodeid": 14,
        "depth": 1,
        "split": 0,
        "split_condition": 12.0,
        "yes": 15,
        "no": 22,
        "missing": 15,
        "children": [
          {
            "nodeid": 15,
            "depth": 2,
            "split": 3,
            "split_condition": 74.0,
            "yes": 16,
            "no": 19,
            "missing": 16,
            "children": [
              {
                "nodeid": 16,
                "depth": 3,
                "split": 3,
                "split_condition": 36.0,
                "yes": 17,
                "no": 18,
                "missing": 17,
                "children": [
                  {
                    "nodeid": 17,
                    "leaf": 0.1372548313733518
                  },
                  {
                    "nodeid": 18,
                    "leaf": 0.23913328626853883
                  }
                ]
              },
              {
                "nodeid": 19,
                "depth": 3,
                "split": 1,
                "split_condition": 16.0,
                "yes": 20,
                "no": 21,
                "missing": 20,
                "children": [
                  {
                    "nodeid": 20,
                    "leaf": -7.805905212140973e-09
                  },
                  {
                    "nodeid": 21,
                    "leaf": 0.10355662341688622
                  }
                ]
              }
            ]
          },
          {
            "nodeid": 22,
            "depth": 2,
            "split": 3,
            "split_condition": 51.0,
            "yes": 23,
            "no": 26,
            "missing": 23,
            "children": [
              {
                "nodeid": 23,
                "depth": 3,
                "split": 3,
                "split_condition": 17.0,
                "yes": 24,
                "no": 25,
                "missing": 24,
                "children": [
                  {
                    "nodeid": 24,
                    "leaf": 0.026315784458860347
                  },
                  {
                    "nodeid": 25,
                    "leaf": 0.06372548194472545
                  }
                ]
              },
              {
                "nodeid": 26,
                "depth": 3,
                "split": 3,
                "split_condition": 86.0,
                "yes": 27,
                "no": 28,
                "missing": 27,
                "children": [
                  {
                    "nodeid": 27,
                    "leaf": -2.3151083580376895e-05
                  },
                  {
                    "nodeid": 28,
                    "leaf": 0.09093030999937764
                  }
                ]
              }
            ]
          }
        ]
      }
    ]
  }
]