[
  {
    "nodeid": 0,
    "depth": 0,
    "split": 44,
    "split_condition": 0.3754,
    "yes": 1,
    "no": 16,
    "missing": 1,
    "children": [
      {
        "nodeid": 1,
        "depth": 1,
        "split": 19,
        "split_condition": 0.5933,
        "yes": 2,
        "no": 9,
        "missing": 2,
        "children": [
          {
            "nodeid": 2,
            "depth": 2,
            "split": 16,
            "split_condition": 0.5638,
            "yes": 3,
            "no": 6,
            "missing": 3,
            "children": [
              {
                "nodeid": 3,
                "depth": 3,
                "split": 25,
                "split_condition": 0.379,
                "yes": 4,
                "no": 5,
                "missing": 4,
                "children": [
                  {
                    "nodeid": 4,
                    "leaf": 0.22222222008165904
                  },
                  {
                    "nodeid": 5,
                    "leaf": 0.469879514653347
                  }
                ]
              },
              {
                "nodeid": 6,
                "depth": 3,
                "split": 34,
                "split_condition": 0.182,
                "yes": 7,
                "no": 8,
                "missing": 7,
                "children": [
                  {
                    "nodeid": 7,
                    "leaf": 0.4698795146396173
                  },
                  {
                    "nodeid": 8,
                    "leaf": 0.0999931976382483
                  }
                ]
              }
            ]
          },
          {
            "nodeid": 9,
            "depth": 2,
            "split": 22,
            "split_condition": 0.2046,
            "yes": 10,
            "no": 13,
            "missing": 10,
            "children": [
              {
                "nodeid": 10,
                "depth": 3,
                "split": 8,
                "split_condition": 0.4346,
                "yes": 11,
                "no": 12,
                "missing": 11,
                "children": [
                  {
                    "nodeid": 11,
                    "leaf": 0.9999999967170272
                  },
                  {
                    "nodeid": 12,
                    "leaf": 0.7499999969343933
                  }
                ]
              },
              {
                "nodeid": 13,
                "depth": 3,
                "split": 39,
                "split_condition": 0.6663,
                "yes": 14,
                "no": 15,
                "missing": 14,
                "children": [
                  {
                    "nodeid": 14,
                    "leaf": 0.5522386501847962
                  },
                  {
                    "nodeid": 15,
                    "leaf": 0.7499999967431259
                  }
                ]
              }
            ]
          }
        ]
      },
      {
        "nodeid": 16,
        "depth": 1,
        "split": 26,
        "split_condition": 0.6838,
        "yes": 17,
        "no": 22,
        "missing": 17,
        "children": [
          {
            "nodeid": 17,
            "depth": 2,
            "split": 36,
            "split_condition": 0.2692,
            "yes": 18,
            "no": 19,
            "missing": 18,
            "children": [
              {
                "nodeid": 18,
                "leaf": 0.9997558668160238
              },
              {
                "nodeid": 19,
                "depth": 3,
                "split": 14,
                "split_condition": 0.168,
                "yes": 20,
                "no": 21,
                "missing": 20,
                "children": [
                  {
                    "nodeid": 20,
                    "leaf": 0.5066666450493873
                  },
                  {
                    "nodeid": 21,
                    "leaf": 0.7499999976092462
                  }
                ]
              }
            ]
          },
          {
            "nodeid": 22,
            "leaf": 0.9999999942978832
          }
        ]
      }
    ]
  }
]