[
  {
    "nodeid": 0,
    "depth": 0,
    "split": 18,
    "split_condition": -6.251425,
    "yes": 1,
    "no": 12,
    "missing": 1,
    "children": [
      {
        "nodeid": 1,
        "depth": 1,
        "split": 1,
        "split_condition": 230.978,
        "yes": 2,
        "no": 7,
        "missing": 2,
        "children": [
          {
            "nodeid": 2,
            "depth": 2,
            "split": 1,
            "split_condition": 140.557,
            "yes": 3,
            "no": 4,
            "missing": 3,
            "children": [
              {
                "nodeid": 3,
                "leaf": 4.21500528907659e-05
              },
              {
                "nodeid": 4,
                "depth": 3,
                "split": 20,
                "split_condition": 1.852402,
                "yes": 5,
                "no": 6,
                "missing": 5,
                "children": [
                  {
                    "nodeid": 5,
                    "leaf": -3.6686462185738053e-05
                  },
                  {
                    "nodeid": 6,
                    "leaf": 0.9259267664871805
                  }
                ]
              }
            ]
          },
          {
            "nodeid": 7,
            "depth": 2,
            "split": 18,
            "split_condition": -6.311987,
            "yes": 8,
            "no": 9,
            "missing": 8,
            "children": [
              {
                "nodeid": 8,
                "leaf": -2.2718853805112125e-08
              },
              {
                "nodeid": 9,
                "depth": 3,
                "split": 2,
                "split_condition": 88.833,
                "yes": 10,
                "no": 11,
                "missing": 10,
                "children": [
                  {
                    "nodeid": 10,
                    "leaf": 0.9259269618063808
                  },
                  {
                    "nodeid": 11,
                    "leaf": 0.0006917413904789328
                  }
                ]
              }
            ]
          }
        ]
      },
      {
        "nodeid": 12,
        "depth": 1,
        "split": 15,
        "split_condition": 25.82,
        "yes": 13,
        "no": 20,
        "missing": 13,
        "children": [
          {
            "nodeid": 13,
            "depth": 2,
            "split": 0,
            "split_condition": 206.327,
            "yes": 14,
            "no": 17,
            "missing": 14,
            "children": [
              {
                "nodeid": 14,
                "depth": 3,
                "split": 0,
                "split_condition": 197.076,
                "yes": 15,
                "no": 16,
                "missing": 15,
                "children": [
                  {
                    "nodeid": 15,
                    "leaf": 0.988244761339306
                  },
                  {
                    "nodeid": 16,
                    "leaf": 0.8751037903432692
                  }
                ]
              },
              {
                "nodeid": 17,
                "depth": 3,
                "split": 1,
                "split_condition": 234.619,
                "yes": 18,
                "no": 19,
                "missing": 18,
                "children": [
                  {
                    "nodeid": 18,
                    "leaf": 1.0000022160352198
                  },
                  {
                    "nodeid": 19,
                    "leaf": 0.35416778448722686
                  }
                ]
              }
            ]
          },
          {
            "nodeid": 20,
            "depth": 2,
            "split": 0,
            "split_condition": 116.556,
            "yes": 21,
            "no": 24,
            "missing": 21,
            "children": [
              {
                "nodeid": 21,
                "depth": 3,
                "split": 18,
                "split_condition": -5.825257,
                "yes": 22,
                "no": 23,
                "missing": 22,
                "children": [
                  {
                    "nodeid": 22,
                    "leaf": -5.6949765154548505e-08
                  },
                  {
                    "nodeid": 23,
                    "leaf": 0.9591893021688688
                  }
                ]
              },
              {
                "nodeid": 24,
                "leaf": 0.9999999937947062
              }
            ]
          }
        ]
      }
    ]
  }
]