[
  {
    "nodeid": 0,
    "depth": 0,
    "split": 20,
    "split_condition": 0.5,
    "yes": 1,
    "no": 16,
    "missing": 1,
    "children": [
      {
        "nodeid": 1,
        "depth": 1,
        "split": 6,
        "split_condition": 0.31,
        "yes": 2,
        "no": 9,
        "missing": 2,
        "children": [
          {
            "nodeid": 2,
            "depth": 2,
            "split": 22,
            "split_condition": 0.35,
            "yes": 3,
            "no": 6,
            "missing": 3,
            "children": [
              {
                "nodeid": 3,
                "depth": 3,
                "split": 51,
                "split_condition": 0.745,
                "yes": 4,
                "no": 5,
                "missing": 4,
                "children": [
                  {
                    "nodeid": 4,
                    "leaf": 0.12234636736635632
                  },
                  {
                    "nodeid": 5,
                    "leaf": 0.5151516323152413
                  }
                ]
              },
              {
                "nodeid": 6,
                "depth": 3,
                "split": 24,
                "split_condition": 0.1,
                "yes": 7,
                "no": 8,
                "missing": 7,
                "children": [
                  {
                    "nodeid": 7,
                    "leaf": 0.6437271547654291
                  },
                  {
                    "nodeid": 8,
                    "leaf": 0.14293249028814434
                  }
                ]
              }
            ]
          },
          {
            "nodeid": 9,
            "depth": 2,
            "split": 20,
            "split_condition": 0.1,
            "yes": 10,
            "no": 13,
            "missing": 10,
            "children": [
              {
                "nodeid": 10,
                "depth": 3,
                "split": 7,
                "split_condition": 0.79,
                "yes": 11,
                "no": 12,
                "missing": 11,
                "children": [
                  {
                    "nodeid": 11,
                    "leaf": 0.915254229213629
                  },
                  {
                    "nodeid": 12,
                    "leaf": 7.678369998848078e-09
                  }
                ]
              },
              {
                "nodeid": 13,
                "depth": 3,
                "split": 26,
                "split_condition": 0.1,
                "yes": 14,
                "no": 15,
                "missing": 14,
                "children": [
                  {
                    "nodeid": 14,
                    "leaf": 0.6437271547687289
                  },
                  {
                    "nodeid": 15,
                    "leaf": 0.16615419574975943
                  }
                ]
              }
            ]
          }
        ]
      },
      {
        "nodeid": 16,
        "depth": 1,
        "split": 24,
        "split_condition": 0.62,
        "yes": 17,
        "no": 24,
        "missing": 17,
        "children": [
          {
            "nodeid": 17,
            "depth": 2,
            "split": 56,
            "split_condition": 64.0,
            "yes": 18,
            "no": 21,
            "missing": 18,
            "children": [
              {
                "nodeid": 18,
                "depth": 3,
                "split": 6,
                "split_condition": 0.1,
                "yes": 19,
                "no": 20,
                "missing": 19,
                "children": [
                  {
                    "nodeid": 19,
                    "leaf": 0.2525597450811834
                  },
                  {
                    "nodeid": 20,
                    "leaf": 0.8327493778290009
                  }
                ]
              },
              {
                "nodeid": 21,
                "depth": 3,
                "split": 26,
                "split_condition": 0.1,
                "yes": 22,
                "no": 23,
                "missing": 22,
                "children": [
                  {
                    "nodeid": 22,
                    "leaf": 0.8584561660411402
                  },
                  {
                    "nodeid": 23,
                    "leaf": 0.19323197084605978
                  }
                ]
              }
            ]
          },
          {
            "nodeid": 24,
            "depth": 2,
            "split": 20,
            "split_condition": 0.7,
            "yes": 25,
            "no": 28,
            "missing": 25,
            "children": [
              {
                "nodeid": 25,
                "depth": 3,
                "split": 2,
                "split_condition": 0.86,
                "yes": 26,
                "no": 27,
                "missing": 26,
                "children": [
                  {
                    "nodeid": 26,
                    "leaf": 0.19323196989953967
                  },
                  {
                    "nodeid": 27,
                    "leaf": 0.045871568169176244
                  }
                ]
              },
              {
                "nodeid": 28,
                "depth": 3,
                "split": 15,
                "split_condition": 0.79,
                "yes": 29,
                "no": 30,
                "missing": 29,
                "children": [
                  {
                    "nodeid": 29,
                    "leaf": 0.009706581973297995
                  },
                  {
                    "nodeid": 30,
                    "leaf": 0.6667743459509219
                  }
                ]
              }
            ]
          }
        ]
      }
    ]
  }
]