[
  {
    "nodeid": 0,
    "depth": 0,
    "split": 20,
    "split_condition": 0.53,
    "yes": 1,
    "no": 14,
    "missing": 1,
    "children": [
      {
        "nodeid": 1,
        "depth": 1,
        "split": 22,
        "split_condition": 0.45,
        "yes": 2,
        "no": 9,
        "missing": 2,
        "children": [
          {
            "nodeid": 2,
            "depth": 2,
            "split": 6,
            "split_condition": 0.46,
            "yes": 3,
            "no": 6,
            "missing": 3,
            "children": [
              {
                "nodeid": 3,
                "depth": 3,
                "split": 51,
                "split_condition": 0.754,
                "yes": 4,
                "no": 5,
                "missing": 4,
                "children": [
                  {
                    "nodeid": 4,
                    "leaf": 0.13275298545688388
                  },
                  {
                    "nodeid": 5,
                    "leaf": 0.5384615316185167
                  }
                ]
              },
              {
                "nodeid": 6,
                "depth": 3,
                "split": 56,
                "split_condition": 63.0,
                "yes": 7,
                "no": 8,
                "missing": 7,
                "children": [
                  {
                    "nodeid": 7,
                    "leaf": 0.8695652134445349
                  },
                  {
                    "nodeid": 8,
                    "leaf": 0.6444723562196875
                  }
                ]
              }
            ]
          },
          {
            "nodeid": 9,
            "depth": 2,
            "split": 24,
            "split_condition": 1.46,
            "yes": 10,
            "no": 13,
            "missing": 10,
            "children": [
              {
                "nodeid": 10,
                "depth": 3,
                "split": 20,
                "split_condition": 0.1,
                "yes": 11,
                "no": 12,
                "missing": 11,
                "children": [
                  {
                    "nodeid": 11,
                    "leaf": 0.8717948662692101
                  },
                  {
                    "nodeid": 12,
                    "leaf": 0.6444723562363318
                  }
                ]
              },
              {
                "nodeid": 13,
                "leaf": 0.17825187987583846
              }
            ]
          }
        ]
      },
      {
        "nodeid": 14,
        "depth": 1,
        "split": 24,
        "split_condition": 0.62,
        "yes": 15,
        "no": 22,
        "missing": 15,
        "children": [
          {
            "nodeid": 15,
            "depth": 2,
            "split": 56,
            "split_condition": 54.0,
            "yes": 16,
            "no": 19,
            "missing": 16,
            "children": [
              {
                "nodeid": 16,
                "depth": 3,
                "split": 6,
                "split_condition": 0.1,
                "yes": 17,
                "no": 18,
                "missing": 17,
                "children": [
                  {
                    "nodeid": 17,
                    "leaf": 0.25660322205113756
                  },
                  {
                    "nodeid": 18,
                    "leaf": 0.8133216451637448
                  }
                ]
              },
              {
                "nodeid": 19,
                "depth": 3,
                "split": 26,
                "split_condition": 0.1,
                "yes": 20,
                "no": 21,
                "missing": 20,
                "children": [
                  {
                    "nodeid": 20,
                    "leaf": 0.8424908448391673
                  },
                  {
                    "nodeid": 21,
                    "leaf": 0.20344661861352165
                  }
                ]
              }
            ]
          },
          {
            "nodeid": 22,
            "depth": 2,
            "split": 20,
            "split_condition": 0.73,
            "yes": 23,
            "no": 26,
            "missing": 23,
            "children": [
              {
                "nodeid": 23,
                "depth": 3,
                "split": 2,
                "split_condition": 1.29,
                "yes": 24,
                "no": 25,
                "missing": 24,
                "children": [
                  {
                    "nodeid": 24,
                    "leaf": 0.2034466182709923
                  },
                  {
                    "nodeid": 25,
                    "leaf": 0.05263157649469405
                  }
                ]
              },
              {
                "nodeid": 26,
                "depth": 3,
                "split": 56,
                "split_condition": 12.0,
                "yes": 27,
                "no": 28,
                "missing": 27,
                "children": [
                  {
                    "nodeid": 27,
                    "leaf": 1.0000003039610779
                  },
                  {
                    "nodeid": 28,
                    "leaf": 0.04255318582923072
                  }
                ]
              }
            ]
          }
        ]
      }
    ]
  }
]