[
  {
    "nodeid": 0,
    "depth": 0,
    "split": 10,
    "split_condition": 10.2,
    "yes": 1,
    "no": 16,
    "missing": 1,
    "children": [
      {
        "nodeid": 1,
        "depth": 1,
        "split": 3,
        "split_condition": 13.2,
        "yes": 2,
        "no": 9,
        "missing": 2,
        "children": [
          {
            "nodeid": 2,
            "depth": 2,
            "split": 10,
            "split_condition": 9.7,
            "yes": 3,
            "no": 6,
            "missing": 3,
            "children": [
              {
                "nodeid": 3,
                "depth": 3,
                "split": 5,
                "split_condition": 28.5,
                "yes": 4,
                "no": 5,
                "missing": 4,
                "children": [
                  {
                    "nodeid": 4,
                    "leaf": 0.6714285661747641
                  },
                  {
                    "nodeid": 5,
                    "leaf": 0.6176206742240853
                  }
                ]
              },
              {
                "nodeid": 6,
                "depth": 3,
                "split": 5,
                "split_condition": 64.0,
                "yes": 7,
                "no": 8,
                "missing": 7,
                "children": [
                  {
                    "nodeid": 7,
                    "leaf": 0.5397840769914312
                  },
                  {
                    "nodeid": 8,
                    "leaf": 0.23333333977592935
                  }
                ]
              }
            ]
          },
          {
            "nodeid": 9,
            "depth": 2,
            "split": 3,
            "split_condition": 17.6,
            "yes": 10,
            "no": 13,
            "missing": 10,
            "children": [
              {
                "nodeid": 10,
                "depth": 3,
                "split": 6,
                "split_condition": 195.0,
                "yes": 11,
                "no": 12,
                "missing": 11,
                "children": [
                  {
                    "nodeid": 11,
                    "leaf": 0.3371212925003015
                  },
                  {
                    "nodeid": 12,
                    "leaf": 0.5070420936669513
                  }
                ]
              },
              {
                "nodeid": 13,
                "depth": 3,
                "split": 6,
                "split_condition": 150.0,
                "yes": 14,
                "no": 15,
                "missing": 14,
                "children": [
                  {
                    "nodeid": 14,
                    "leaf": 0.8260869519920266
                  },
                  {
                    "nodeid": 15,
                    "leaf": 0.6125006388258659
                  }
                ]
              }
            ]
          }
        ]
      },
      {
        "nodeid": 16,
        "depth": 1,
        "split": 10,
        "split_condition": 11.7,
        "yes": 17,
        "no": 24,
        "missing": 17,
        "children": [
          {
            "nodeid": 17,
            "depth": 2,
            "split": 5,
            "split_condition": 4.0,
            "yes": 18,
            "no": 21,
            "missing": 18,
            "children": [
              {
                "nodeid": 18,
                "depth": 3,
                "split": 6,
                "split_condition": 29.0,
                "yes": 19,
                "no": 20,
                "missing": 19,
                "children": [
                  {
                    "nodeid": 19,
                    "leaf": 0.5200000079998702
                  },
                  {
                    "nodeid": 20,
                    "leaf": 0.9999999923653429
                  }
                ]
              },
              {
                "nodeid": 21,
                "depth": 3,
                "split": 5,
                "split_condition": 112.0,
                "yes": 22,
                "no": 23,
                "missing": 22,
                "children": [
                  {
                    "nodeid": 22,
                    "leaf": 0.2065257610338596
                  },
                  {
                    "nodeid": 23,
                    "leaf": 0.9999999342107231
                  }
                ]
              }
            ]
          },
          {
            "nodeid": 24,
            "depth": 2,
            "split": 0,
            "split_condition": 13.2,
            "yes": 25,
            "no": 28,
            "missing": 25,
            "children": [
              {
                "nodeid": 25,
                "depth": 3,
                "split": 5,
                "split_condition": 5.5,
                "yes": 26,
                "no": 27,
                "missing": 26,
                "children": [
                  {
                    "nodeid": 26,
                    "leaf": 0.20652575988891472
                  },
                  {
                    "nodeid": 27,
                    "leaf": 0.069844773843402
                  }
                ]
              },
              {
                "nodeid": 28,
                "depth": 3,
                "split": 3,
                "split_condition": 3.1,
                "yes": 29,
                "no": 30,
                "missing": 29,
                "children": [
                  {
                    "nodeid": 29,
                    "leaf": -1.7332769386424474e-09
                  },
                  {
                    "nodeid": 30,
                    "leaf": 0.9999999979650767
                  }
                ]
              }
            ]
          }
        ]
      }
    ]
  }
]