[
  {
    "nodeid": 0,
    "depth": 0,
    "split": 4,
    "split_condition": 0.13959,
    "yes": 1,
    "no": 8,
    "missing": 1,
    "children": [
      {
        "nodeid": 1,
        "depth": 1,
        "split": 7,
        "split_condition": 0.16912,
        "yes": 2,
        "no": 3,
        "missing": 2,
        "children": [
          {
            "nodeid": 2,
            "leaf": 1.0000066353621015
          },
          {
            "nodeid": 3,
            "depth": 2,
            "split": 4,
            "split_condition": -0.50694,
            "yes": 4,
            "no": 5,
            "missing": 4,
            "children": [
              {
                "nodeid": 4,
                "leaf": 0.9999999927145643
              },
              {
                "nodeid": 5,
                "depth": 3,
                "split": 19,
                "split_condition": 0.11628,
                "yes": 6,
                "no": 7,
                "missing": 6,
                "children": [
                  {
                    "nodeid": 6,
                    "leaf": 0.21330478067360517
                  },
                  {
                    "nodeid": 7,
                    "leaf": 0.9999112191446727
                  }
                ]
              }
            ]
          }
        ]
      },
      {
        "nodeid": 8,
        "depth": 1,
        "split": 5,
        "split_condition": -0.62766,
        "yes": 9,
        "no": 14,
        "missing": 9,
        "children": [
          {
            "nodeid": 9,
            "depth": 2,
            "split": 26,
            "split_condition": 0.64158,
            "yes": 10,
            "no": 11,
            "missing": 10,
            "children": [
              {
                "nodeid": 10,
                "leaf": -7.470727381338194e-09
              },
              {
                "nodeid": 11,
                "depth": 3,
                "split": 23,
                "split_condition": 0.20301,
                "yes": 12,
                "no": 13,
                "missing": 12,
                "children": [
                  {
                    "nodeid": 12,
                    "leaf": 0.7500004259714894
                  },
                  {
                    "nodeid": 13,
                    "leaf": 1.000000229489505
                  }
                ]
              }
            ]
          },
          {
            "nodeid": 14,
            "depth": 2,
            "split": 7,
            "split_condition": -0.56435,
            "yes": 15,
            "no": 18,
            "missing": 15,
            "children": [
              {
                "nodeid": 15,
                "depth": 3,
                "split": 5,
                "split_condition": 0.06667,
                "yes": 16,
                "no": 17,
                "missing": 16,
                "children": [
                  {
                    "nodeid": 16,
                    "leaf": 0.5000056234962421
                  },
                  {
                    "nodeid": 17,
                    "leaf": 1.0535518151926857
                  }
                ]
              },
              {
                "nodeid": 18,
                "depth": 3,
                "split": 13,
                "split_condition": -0.59212,
                "yes": 19,
                "no": 20,
                "missing": 19,
                "children": [
                  {
                    "nodeid": 19,
                    "leaf": 0.7777903270674609
                  },
                  {
                    "nodeid": 20,
                    "leaf": 0.08555642539903942
                  }
                ]
              }
            ]
          }
        ]
      }
    ]
  }
]