[
  {
    "nodeid": 0,
    "depth": 0,
    "split": 2,
    "split_condition": 8.0,
    "yes": 1,
    "no": 14,
    "missing": 1,
    "children": [
      {
        "nodeid": 1,
        "depth": 1,
        "split": 0,
        "split_condition": 40.0,
        "yes": 2,
        "no": 7,
        "missing": 2,
        "children": [
          {
            "nodeid": 2,
            "depth": 2,
            "split": 0,
            "split_condition": 35.0,
            "yes": 3,
            "no": 6,
            "missing": 3,
            "children": [
              {
                "nodeid": 3,
                "depth": 3,
                "split": 1,
                "split_condition": 2.0,
                "yes": 4,
                "no": 5,
                "missing": 4,
                "children": [
                  {
                    "nodeid": 4,
                    "leaf": 0.24999999385026073
                  },
                  {
                    "nodeid": 5,
                    "leaf": -7.080955083133694e-09
                  }
                ]
              },
              {
                "nodeid": 6,
                "leaf": -4.700546410441042e-10
              }
            ]
          },
          {
            "nodeid": 7,
            "depth": 2,
            "split": 0,
            "split_condition": 77.0,
            "yes": 8,
            "no": 11,
            "missing": 8,
            "children": [
              {
                "nodeid": 8,
                "depth": 3,
                "split": 2,
                "split_condition": 2.0,
                "yes": 9,
                "no": 10,
                "missing": 9,
                "children": [
                  {
                    "nodeid": 9,
                    "leaf": 0.17777777083099147
                  },
                  {
                    "nodeid": 10,
                    "leaf": 0.21076525601197724
                  }
                ]
              },
              {
                "nodeid": 11,
                "depth": 3,
                "split": 2,
                "split_condition": 2.0,
                "yes": 12,
                "no": 13,
                "missing": 12,
                "children": [
                  {
                    "nodeid": 12,
                    "leaf": 0.9998234328586555
                  },
                  {
                    "nodeid": 13,
                    "leaf": 0.21076549437517972
                  }
                ]
              }
            ]
          }
        ]
      },
      {
        "nodeid": 14,
        "depth": 1,
        "split": 0,
        "split_condition": 42.0,
        "yes": 15,
        "no": 20,
        "missing": 15,
        "children": [
          {
            "nodeid": 15,
            "depth": 2,
            "split": 1,
            "split_condition": 9.0,
            "yes": 16,
            "no": 19,
            "missing": 16,
            "children": [
              {
                "nodeid": 16,
                "depth": 3,
                "split": 0,
                "split_condition": 39.0,
                "yes": 17,
                "no": 18,
                "missing": 17,
                "children": [
                  {
                    "nodeid": 17,
                    "leaf": -5.639193112472185e-09
                  },
                  {
                    "nodeid": 18,
                    "leaf": 0.2107652560123899
                  }
                ]
              },
              {
                "nodeid": 19,
                "leaf": 1.0000000000006897
              }
            ]
          },
          {
            "nodeid": 20,
            "depth": 2,
            "split": 0,
            "split_condition": 68.0,
            "yes": 21,
            "no": 24,
            "missing": 21,
            "children": [
              {
                "nodeid": 21,
                "depth": 3,
                "split": 1,
                "split_condition": 2.0,
                "yes": 22,
                "no": 23,
                "missing": 22,
                "children": [
                  {
                    "nodeid": 22,
                    "leaf": 1.0000000048180728
                  },
                  {
                    "nodeid": 23,
                    "leaf": 0.5862068895532773
                  }
                ]
              },
              {
                "nodeid": 24,
                "depth": 3,
                "split": 1,
                "split_condition": 2.0,
                "yes": 25,
                "no": 26,
                "missing": 25,
                "children": [
                  {
                    "nodeid": 25,
                    "leaf": 0.21076525602266985
                  },
                  {
                    "nodeid": 26,
                    "leaf": -1.0731276978148685e-11
                  }
                ]
              }
            ]
          }
        ]
      }
    ]
  }
]