[
  {
    "nodeid": 0,
    "depth": 0,
    "split": 0,
    "split_condition": 6.0,
    "yes": 1,
    "no": 14,
    "missing": 1,
    "children": [
      {
        "nodeid": 1,
        "depth": 1,
        "split": 1,
        "split_condition": 18.0,
        "yes": 2,
        "no": 9,
        "missing": 2,
        "children": [
          {
            "nodeid": 2,
            "depth": 2,
            "split": 3,
            "split_condition": 50.0,
            "yes": 3,
            "no": 6,
            "missing": 3,
            "children": [
              {
                "nodeid": 3,
                "depth": 3,
                "split": 1,
                "split_condition": 7.0,
                "yes": 4,
                "no": 5,
                "missing": 4,
                "children": [
                  {
                    "nodeid": 4,
                    "leaf": 0.3315446022931813
                  },
                  {
                    "nodeid": 5,
                    "leaf": 0.6046422669848316
                  }
                ]
              },
              {
                "nodeid": 6,
                "depth": 3,
                "split": 1,
                "split_condition": 10.0,
                "yes": 7,
                "no": 8,
                "missing": 7,
                "children": [
                  {
                    "nodeid": 7,
                    "leaf": 0.07405500217634176
                  },
                  {
                    "nodeid": 8,
                    "leaf": 0.26084754862027487
                  }
                ]
              }
            ]
          },
          {
            "nodeid": 9,
            "depth": 2,
            "split": 1,
            "split_condition": 26.0,
            "yes": 10,
            "no": 13,
            "missing": 10,
            "children": [
              {
                "nodeid": 10,
                "depth": 3,
                "split": 3,
                "split_condition": 70.0,
                "yes": 11,
                "no": 12,
                "missing": 11,
                "children": [
                  {
                    "nodeid": 11,
                    "leaf": 0.999999991867885
                  },
                  {
                    "nodeid": 12,
                    "leaf": 0.3333333252014734
                  }
                ]
              },
              {
                "nodeid": 13,
                "leaf": 1.0000138067085234
              }
            ]
          }
        ]
      },
      {
        "nodeid": 14,
        "depth": 1,
        "split": 0,
        "split_condition": 15.0,
        "yes": 15,
        "no": 22,
        "missing": 15,
        "children": [
          {
            "nodeid": 15,
            "depth": 2,
            "split": 1,
            "split_condition": 19.0,
            "yes": 16,
            "no": 19,
            "missing": 16,
            "children": [
              {
                "nodeid": 16,
                "depth": 3,
                "split": 0,
                "split_condition": 8.0,
                "yes": 17,
                "no": 18,
                "missing": 17,
                "children": [
                  {
                    "nodeid": 17,
                    "leaf": 0.11762148724840242
                  },
                  {
                    "nodeid": 18,
                    "leaf": 0.15823989068342512
                  }
                ]
              },
              {
                "nodeid": 19,
                "depth": 3,
                "split": 0,
                "split_condition": 7.0,
                "yes": 20,
                "no": 21,
                "missing": 20,
                "children": [
                  {
                    "nodeid": 20,
                    "leaf": 0.3630373781989282
                  },
                  {
                    "nodeid": 21,
                    "leaf": -5.179076475458899e-07
                  }
                ]
              }
            ]
          },
          {
            "nodeid": 22,
            "depth": 2,
            "split": 3,
            "split_condition": 17.0,
            "yes": 23,
            "no": 24,
            "missing": 23,
            "children": [
              {
                "nodeid": 23,
                "leaf": -2.043484825797748e-09
              },
              {
                "nodeid": 24,
                "depth": 3,
                "split": 3,
                "split_condition": 22.0,
                "yes": 25,
                "no": 26,
                "missing": 25,
                "children": [
                  {
                    "nodeid": 25,
                    "leaf": 0.11776278702548544
                  },
                  {
                    "nodeid": 26,
                    "leaf": 0.06474544934126203
                  }
                ]
              }
            ]
          }
        ]
      }
    ]
  }
]