[
  {
    "nodeid": 0,
    "depth": 0,
    "split": 0,
    "split_condition": 0.74428,
    "yes": 1,
    "no": 16,
    "missing": 1,
    "children": [
      {
        "nodeid": 1,
        "depth": 1,
        "split": 1,
        "split_condition": 5.3449,
        "yes": 2,
        "no": 9,
        "missing": 2,
        "children": [
          {
            "nodeid": 2,
            "depth": 2,
            "split": 0,
            "split_condition": -0.49281,
            "yes": 3,
            "no": 6,
            "missing": 3,
            "children": [
              {
                "nodeid": 3,
                "depth": 3,
                "split": 2,
                "split_condition": 6.8964,
                "yes": 4,
                "no": 5,
                "missing": 4,
                "children": [
                  {
                    "nodeid": 4,
                    "leaf": 0.9871794797138755
                  },
                  {
                    "nodeid": 5,
                    "leaf": 0.902912614522041
                  }
                ]
              },
              {
                "nodeid": 6,
                "depth": 3,
                "split": 2,
                "split_condition": 2.3055,
                "yes": 7,
                "no": 8,
                "missing": 7,
                "children": [
                  {
                    "nodeid": 7,
                    "leaf": 0.8947664747868033
                  },
                  {
                    "nodeid": 8,
                    "leaf": 0.0958083880176921
                  }
                ]
              }
            ]
          },
          {
            "nodeid": 9,
            "depth": 2,
            "split": 0,
            "split_condition": -3.8894,
            "yes": 10,
            "no": 13,
            "missing": 10,
            "children": [
              {
                "nodeid": 10,
                "depth": 3,
                "split": 2,
                "split_condition": 1.1941,
                "yes": 11,
                "no": 12,
                "missing": 11,
                "children": [
                  {
                    "nodeid": 11,
                    "leaf": 0.9999999968201834
                  },
                  {
                    "nodeid": 12,
                    "leaf": -3.5589214908426925e-09
                  }
                ]
              },
              {
                "nodeid": 13,
                "depth": 3,
                "split": 0,
                "split_condition": 0.64215,
                "yes": 14,
                "no": 15,
                "missing": 14,
                "children": [
                  {
                    "nodeid": 14,
                    "leaf": 6.9229417114940485e-06
                  },
                  {
                    "nodeid": 15,
                    "leaf": 0.09580837766378995
                  }
                ]
              }
            ]
          }
        ]
      },
      {
        "nodeid": 16,
        "depth": 1,
        "split": 2,
        "split_condition": -4.5398,
        "yes": 17,
        "no": 24,
        "missing": 17,
        "children": [
          {
            "nodeid": 17,
            "depth": 2,
            "split": 0,
            "split_condition": 2.5068,
            "yes": 18,
            "no": 21,
            "missing": 18,
            "children": [
              {
                "nodeid": 18,
                "depth": 3,
                "split": 0,
                "split_condition": 0.92703,
                "yes": 19,
                "no": 20,
                "missing": 19,
                "children": [
                  {
                    "nodeid": 19,
                    "leaf": 0.7370184241384548
                  },
                  {
                    "nodeid": 20,
                    "leaf": 0.9999999926545255
                  }
                ]
              },
              {
                "nodeid": 21,
                "depth": 3,
                "split": 0,
                "split_condition": 4.7926,
                "yes": 22,
                "no": 23,
                "missing": 22,
                "children": [
                  {
                    "nodeid": 22,
                    "leaf": 0.06485354968309272
                  },
                  {
                    "nodeid": 23,
                    "leaf": -3.7630596833038155e-09
                  }
                ]
              }
            ]
          },
          {
            "nodeid": 24,
            "depth": 2,
            "split": 0,
            "split_condition": 2.1319,
            "yes": 25,
            "no": 28,
            "missing": 25,
            "children": [
              {
                "nodeid": 25,
                "depth": 3,
                "split": 2,
                "split_condition": -2.5323,
                "yes": 26,
                "no": 27,
                "missing": 26,
                "children": [
                  {
                    "nodeid": 26,
                    "leaf": 0.7370184191787746
                  },
                  {
                    "nodeid": 27,
                    "leaf": 0.07193414406513093
                  }
                ]
              },
              {
                "nodeid": 28,
                "leaf": -7.976860694304249e-09
              }
            ]
          }
        ]
      }
    ]
  }
]