[
  {
    "nodeid": 0,
    "depth": 0,
    "split": 0,
    "split_condition": 7.0,
    "yes": 1,
    "no": 14,
    "missing": 1,
    "children": [
      {
        "nodeid": 1,
        "depth": 1,
        "split": 1,
        "split_condition": 4.0,
        "yes": 2,
        "no": 7,
        "missing": 2,
        "children": [
          {
            "nodeid": 2,
            "depth": 2,
            "split": 3,
            "split_condition": 3.0,
            "yes": 3,
            "no": 4,
            "missing": 3,
            "children": [
              {
                "nodeid": 3,
                "leaf": 0.14285714028363167
              },
              {
                "nodeid": 4,
                "depth": 3,
                "split": 0,
                "split_condition": 1.0,
                "yes": 5,
                "no": 6,
                "missing": 5,
                "children": [
                  {
                    "nodeid": 5,
                    "leaf": -2.2120616616216893e-08
                  },
                  {
                    "nodeid": 6,
                    "leaf": 0.2782021318534671
                  }
                ]
              }
            ]
          },
          {
            "nodeid": 7,
            "depth": 2,
            "split": 3,
            "split_condition": 45.0,
            "yes": 8,
            "no": 11,
            "missing": 8,
            "children": [
              {
                "nodeid": 8,
                "depth": 3,
                "split": 1,
                "split_condition": 7.0,
                "yes": 9,
                "no": 10,
                "missing": 9,
                "children": [
                  {
                    "nodeid": 9,
                    "leaf": 0.4838605062693961
                  },
                  {
                    "nodeid": 10,
                    "leaf": 0.7058665544818938
                  }
                ]
              },
              {
                "nodeid": 11,
                "depth": 3,
                "split": 1,
                "split_condition": 8.0,
                "yes": 12,
                "no": 13,
                "missing": 12,
                "children": [
                  {
                    "nodeid": 12,
                    "leaf": 0.2782021791756104
                  },
                  {
                    "nodeid": 13,
                    "leaf": 0.36184209589474386
                  }
                ]
              }
            ]
          }
        ]
      },
      {
        "nodeid": 14,
        "depth": 1,
        "split": 3,
        "split_condition": 18.0,
        "yes": 15,
        "no": 20,
        "missing": 15,
        "children": [
          {
            "nodeid": 15,
            "depth": 2,
            "split": 3,
            "split_condition": 13.0,
            "yes": 16,
            "no": 17,
            "missing": 16,
            "children": [
              {
                "nodeid": 16,
                "leaf": -2.639130913806298e-09
              },
              {
                "nodeid": 17,
                "depth": 3,
                "split": 0,
                "split_condition": 15.0,
                "yes": 18,
                "no": 19,
                "missing": 18,
                "children": [
                  {
                    "nodeid": 18,
                    "leaf": 0.04918031993517621
                  },
                  {
                    "nodeid": 19,
                    "leaf": -1.7918219893942045e-09
                  }
                ]
              }
            ]
          },
          {
            "nodeid": 20,
            "depth": 2,
            "split": 3,
            "split_condition": 24.0,
            "yes": 21,
            "no": 24,
            "missing": 21,
            "children": [
              {
                "nodeid": 21,
                "depth": 3,
                "split": 0,
                "split_condition": 15.0,
                "yes": 22,
                "no": 23,
                "missing": 22,
                "children": [
                  {
                    "nodeid": 22,
                    "leaf": 0.333333332115509
                  },
                  {
                    "nodeid": 23,
                    "leaf": 0.12903225444849215
                  }
                ]
              },
              {
                "nodeid": 24,
                "depth": 3,
                "split": 0,
                "split_condition": 22.0,
                "yes": 25,
                "no": 26,
                "missing": 25,
                "children": [
                  {
                    "nodeid": 25,
                    "leaf": 0.11186439867793618
                  },
                  {
                    "nodeid": 26,
                    "leaf": 0.030303023905324702
                  }
                ]
              }
            ]
          }
        ]
      }
    ]
  }
]