[
  {
    "nodeid": 0,
    "depth": 0,
    "split": 1,
    "split_condition": 127.0,
    "yes": 1,
    "no": 16,
    "missing": 1,
    "children": [
      {
        "nodeid": 1,
        "depth": 1,
        "split": 5,
        "split_condition": 26.3,
        "yes": 2,
        "no": 9,
        "missing": 2,
        "children": [
          {
            "nodeid": 2,
            "depth": 2,
            "split": 0,
            "split_condition": 9.0,
            "yes": 3,
            "no": 6,
            "missing": 3,
            "children": [
              {
                "nodeid": 3,
                "depth": 3,
                "split": 7,
                "split_condition": 24.0,
                "yes": 4,
                "no": 5,
                "missing": 4,
                "children": [
                  {
                    "nodeid": 4,
                    "leaf": 0.01753815324458972
                  },
                  {
                    "nodeid": 5,
                    "leaf": 2.278386638590905e-05
                  }
                ]
              },
              {
                "nodeid": 6,
                "depth": 3,
                "split": 2,
                "split_condition": 24.0,
                "yes": 7,
                "no": 8,
                "missing": 7,
                "children": [
                  {
                    "nodeid": 7,
                    "leaf": 1.0000104483718193
                  },
                  {
                    "nodeid": 8,
                    "leaf": 0.009433997153963421
                  }
                ]
              }
            ]
          },
          {
            "nodeid": 9,
            "depth": 2,
            "split": 1,
            "split_condition": 126.0,
            "yes": 10,
            "no": 13,
            "missing": 10,
            "children": [
              {
                "nodeid": 10,
                "depth": 3,
                "split": 7,
                "split_condition": 30.0,
                "yes": 11,
                "no": 12,
                "missing": 11,
                "children": [
                  {
                    "nodeid": 11,
                    "leaf": 0.1897435827941298
                  },
                  {
                    "nodeid": 12,
                    "leaf": 0.401785360040305
                  }
                ]
              },
              {
                "nodeid": 13,
                "depth": 3,
                "split": 0,
                "split_condition": 12.0,
                "yes": 14,
                "no": 15,
                "missing": 14,
                "children": [
                  {
                    "nodeid": 14,
                    "leaf": 0.18974358279410314
                  },
                  {
                    "nodeid": 15,
                    "leaf": 0.25547445203051505
                  }
                ]
              }
            ]
          }
        ]
      },
      {
        "nodeid": 16,
        "depth": 1,
        "split": 1,
        "split_condition": 155.0,
        "yes": 17,
        "no": 24,
        "missing": 17,
        "children": [
          {
            "nodeid": 17,
            "depth": 2,
            "split": 5,
            "split_condition": 27.8,
            "yes": 18,
            "no": 21,
            "missing": 18,
            "children": [
              {
                "nodeid": 18,
                "depth": 3,
                "split": 2,
                "split_condition": 55.0,
                "yes": 19,
                "no": 20,
                "missing": 19,
                "children": [
                  {
                    "nodeid": 19,
                    "leaf": 1.0000059825298386
                  },
                  {
                    "nodeid": 20,
                    "leaf": 0.18974358304642336
                  }
                ]
              },
              {
                "nodeid": 21,
                "depth": 3,
                "split": 7,
                "split_condition": 42.0,
                "yes": 22,
                "no": 23,
                "missing": 22,
                "children": [
                  {
                    "nodeid": 22,
                    "leaf": 0.4962405921917644
                  },
                  {
                    "nodeid": 23,
                    "leaf": 0.7333333101618191
                  }
                ]
              }
            ]
          },
          {
            "nodeid": 24,
            "depth": 2,
            "split": 5,
            "split_condition": 28.6,
            "yes": 25,
            "no": 28,
            "missing": 25,
            "children": [
              {
                "nodeid": 25,
                "depth": 3,
                "split": 5,
                "split_condition": 25.4,
                "yes": 26,
                "no": 27,
                "missing": 26,
                "children": [
                  {
                    "nodeid": 26,
                    "leaf": 0.9999999757035445
                  },
                  {
                    "nodeid": 27,
                    "leaf": 0.39999998483285326
                  }
                ]
              },
              {
                "nodeid": 28,
                "depth": 3,
                "split": 4,
                "split_condition": 600.0,
                "yes": 29,
                "no": 30,
                "missing": 29,
                "children": [
                  {
                    "nodeid": 29,
                    "leaf": 0.878378041821509
                  },
                  {
                    "nodeid": 30,
                    "leaf": 0.33331305238381015
                  }
                ]
              }
            ]
          }
        ]
      }
    ]
  }
]