[
  {
    "nodeid": 0,
    "depth": 0,
    "split": 35,
    "split_condition": 0.4014,
    "yes": 1,
    "no": 12,
    "missing": 1,
    "children": [
      {
        "nodeid": 1,
        "depth": 1,
        "split": 44,
        "split_condition": 0.3263,
        "yes": 2,
        "no": 7,
        "missing": 2,
        "children": [
          {
            "nodeid": 2,
            "depth": 2,
            "split": 28,
            "split_condition": 0.1881,
            "yes": 3,
            "no": 4,
            "missing": 3,
            "children": [
              {
                "nodeid": 3,
                "leaf": 0.9999999999999993
              },
              {
                "nodeid": 4,
                "depth": 3,
                "split": 37,
                "split_condition": 0.5581,
                "yes": 5,
                "no": 6,
                "missing": 5,
                "children": [
                  {
                    "nodeid": 5,
                    "leaf": 0.5869565128448304
                  },
                  {
                    "nodeid": 6,
                    "leaf": 0.47297298070052135
                  }
                ]
              }
            ]
          },
          {
            "nodeid": 7,
            "depth": 2,
            "split": 20,
            "split_condition": 0.3825,
            "yes": 8,
            "no": 11,
            "missing": 8,
            "children": [
              {
                "nodeid": 8,
                "depth": 3,
                "split": 27,
                "split_condition": 0.365,
                "yes": 9,
                "no": 10,
                "missing": 9,
                "children": [
                  {
                    "nodeid": 9,
                    "leaf": -5.329070518200751e-15
                  },
                  {
                    "nodeid": 10,
                    "leaf": 0.5869565128448593
                  }
                ]
              },
              {
                "nodeid": 11,
                "leaf": 1.0000001550357585
              }
            ]
          }
        ]
      },
      {
        "nodeid": 12,
        "depth": 1,
        "split": 19,
        "split_condition": 0.5858,
        "yes": 13,
        "no": 18,
        "missing": 13,
        "children": [
          {
            "nodeid": 13,
            "depth": 2,
            "split": 16,
            "split_condition": 0.5386,
            "yes": 14,
            "no": 17,
            "missing": 14,
            "children": [
              {
                "nodeid": 14,
                "depth": 3,
                "split": 44,
                "split_condition": 0.2709,
                "yes": 15,
                "no": 16,
                "missing": 15,
                "children": [
                  {
                    "nodeid": 15,
                    "leaf": 0.3333339154651795
                  },
                  {
                    "nodeid": 16,
                    "leaf": 0.4729729637787506
                  }
                ]
              },
              {
                "nodeid": 17,
                "leaf": -4.7478673492751255e-09
              }
            ]
          },
          {
            "nodeid": 18,
            "depth": 2,
            "split": 32,
            "split_condition": 0.7927,
            "yes": 19,
            "no": 22,
            "missing": 19,
            "children": [
              {
                "nodeid": 19,
                "depth": 3,
                "split": 26,
                "split_condition": 0.1617,
                "yes": 20,
                "no": 21,
                "missing": 20,
                "children": [
                  {
                    "nodeid": 20,
                    "leaf": 0.4999995155567367
                  },
                  {
                    "nodeid": 21,
                    "leaf": 0.47297296377900794
                  }
                ]
              },
              {
                "nodeid": 22,
                "depth": 3,
                "split": 36,
                "split_condition": 0.2554,
                "yes": 23,
                "no": 24,
                "missing": 23,
                "children": [
                  {
                    "nodeid": 23,
                    "leaf": 0.5869565072560048
                  },
                  {
                    "nodeid": 24,
                    "leaf": 0.4999999951287769
                  }
                ]
              }
            ]
          }
        ]
      }
    ]
  }
]